0.12094081193208694
-0.13503848016262054
-0.31405994296073914
-0.18260608613491058
-0.06677357852458954
-0.03258974850177765
-0.27633026242256165
-0.36854425072669983
-0.2237786203622818
-0.41074320673942566
0.3015141189098358
0.043392363935709
0.09598375111818314
0.0954538881778717
-0.143239825963974
0.26758962869644165
0.4066421687602997
0.29785677790641785
0.0720599889755249
0.24321240186691284
0.1145707219839096
0.06857885420322418
0.2987249195575714
0.36826831102371216
0.4244948923587799
-0.16275908052921295
-0.08814485371112823
0.3366064131259918
0.47110405564308167
0.540671706199646
0.11065330356359482
-0.1945522576570511
-0.34959739446640015
-0.4466167986392975
-0.07059574872255325
0.1121973842382431
-0.2202424556016922
-0.5287442207336426
-0.5868663191795349
-0.5228707194328308
0.08109184354543686
0.23868918418884277
0.011602583341300488
0.10395407676696777
-0.10472102463245392
0.0017353621078655124
0.2996217906475067
0.3692188858985901
0.415828675031662
0.1761917918920517
0.335722416639328
0.5542969107627869
0.019737770780920982
-0.1862146109342575
-0.31779587268829346
0.6566227674484253
0.6341848373413086
0.292030394077301
-0.19081583619117737
-0.3325592279434204
0.4458130896091461
0.5123143196105957
0.29455310106277466
-0.010093611665070057
0.21775975823402405
0.21767501533031464
0.2848081588745117
0.20991459488868713
0.47371721267700195
0.3033108413219452
-0.12144314497709274
0.09653987735509872
0.06940935552120209
0.2970958352088928
0.35607239603996277
0.05874847248196602
0.2186206430196762
0.17725715041160583
0.10408142954111099
0.3224627375602722
-0.24491097033023834
0.02914690598845482
0.3328206241130829
0.0065889861434698105
0.4699955880641937
-0.2621340751647949
-0.08690230548381805
0.04522229731082916
0.28468769788742065
0.32652080059051514
-0.38878825306892395
-0.02491329237818718
0.21377861499786377
0.3406021296977997
0.5194692611694336
-0.06637263298034668
0.0902465209364891
0.21660782396793365
0.43707144260406494
0.6217029094696045