0.18859189748764038
0.08750399202108383
0.049590520560741425
0.14352713525295258
0.26070713996887207
0.5354060530662537
0.4441196918487549
0.4412599503993988
0.26693445444107056
0.05051099509000778
0.43603911995887756
0.06822697818279266
0.6496349573135376
0.387290894985199
0.591515064239502
0.8669317364692688
0.5580070614814758
0.7733663320541382
0.016630766913294792
0.14327245950698853
0.3266783654689789
-0.052480828016996384
0.08680299669504166
0.0070676193572580814
0.23964817821979523
0.2831059396266937
0.3623395264148712
-0.2798522710800171
-0.19121459126472473
0.011160577647387981
-0.18664047122001648
-0.22185999155044556
0.11717060208320618
0.12145017087459564
-0.05965014547109604
-0.2633453607559204
0.14737537503242493
0.04910292103886604
0.345766544342041
0.32870396971702576
0.29887425899505615
0.37533947825431824
0.31633010506629944
-0.07036148756742477
0.4694332778453827
0.5089027881622314
0.2421545535326004
-0.11202672868967056
-0.009354731068015099
-0.1684388965368271
-0.14769919216632843
0.21461543440818787
0.11099418252706528
-0.16411340236663818
-0.6475995779037476
-0.5416791439056396
-0.030464215204119682
-0.11043581366539001
-0.17978905141353607
-0.21063286066055298
0.3439215421676636
0.14289936423301697
-0.06461785733699799
-0.37626469135284424
-0.3332367539405823
0.06476888805627823
-0.11635822802782059
-0.044357188045978546
0.11423351615667343
0.036590974777936935
0.13883624970912933
0.35414984822273254
-0.6124906539916992
-0.19187848269939423
-0.28141844272613525
-0.5417295694351196
-0.2958911061286926
0.0900065079331398
-0.26635247468948364
-0.18385210633277893
0.07725853472948074
-0.579261302947998
0.09441531449556351
0.14420868456363678
-0.9325687885284424
0.0656462088227272
0.21633097529411316
-0.5542498826980591
0.18943877518177032
-0.06609455496072769
-0.41015106439590454
0.015938933938741684
0.041087888181209564
-0.1671369969844818
0.2642759680747986
0.18401451408863068
0.33706986904144287
0.21747897565364838
0.04939299076795578
0.4938129186630249
-0.07561031728982925
-0.2252570241689682
0.4173690676689148
-0.10027666389942169
-0.43272626399993896
0.21063700318336487
-0.0811198279261589
-0.18516398966312408
0.04038424789905548
-0.17297521233558655
-0.34134170413017273
0.037815533578395844
0.08353652060031891
0.09029465168714523
-0.017977550625801086
-0.027867073193192482
0.1183069497346878
0.33673471212387085
0.01666427031159401
-0.060760948807001114
0.49143141508102417
0.15619578957557678
0.013098795898258686
0.2559203803539276
0.08605023473501205
-0.04701864719390869
0.24658820033073425
0.1067063957452774
0.5069133639335632
0.3384592831134796
0.20732294023036957
0.19721435010433197
-0.3147212862968445
-0.17929355800151825
-0.1580228954553604
0.15885324776172638
-0.009726743213832378
0.6223734617233276
-0.017092779278755188
0.1205180361866951
0.29832723736763
-0.23291075229644775
-0.09010311216115952
0.02761799469590187