-0.3738446533679962
0.26855212450027466
0.04981622099876404
0.1715436428785324
0.02108837477862835
-0.35220831632614136
-0.48510071635246277
0.157766655087471
-0.30773627758026123
0.538997232913971
-0.32044729590415955
0.6573466062545776
0.2875734865665436
0.3993981182575226
-0.3285900056362152
-0.7010196447372437
-0.7015116810798645
0.06034533679485321
-0.24344050884246826
0.1257171481847763
0.15479807555675507
0.5103602409362793
-0.19339881837368011
0.38590726256370544
-0.19311560690402985
-0.33342525362968445
-0.7672235369682312
0.17105887830257416
-0.21724611520767212
-0.3189334571361542
-0.30790555477142334
-0.49063822627067566
0.09120163321495056
-0.3547285795211792
-0.2903778553009033
0.21122804284095764
-0.32407915592193604
0.37969475984573364
-0.3214912414550781
0.47800278663635254
0.01730502024292946
0.3529408872127533
0.017502842471003532
-0.008077596314251423
-0.19732049107551575
-0.42525598406791687
-0.3541048765182495
0.1642640233039856
0.4236499071121216
-0.16660459339618683
0.5006421208381653
0.02730882354080677
-0.3223252594470978
0.1942230612039566
-0.3743850886821747
0.12782514095306396
0.16591215133666992
-0.04456108808517456
-0.32264620065689087
0.015816600993275642
-0.21703112125396729
0.2477005273103714
0.4715723991394043
0.04773697629570961
-0.4408213496208191
-0.13792301714420319
0.27185699343681335
0.1706668883562088
-0.1646946221590042
-0.3833511471748352
0.08483891189098358
0.3249683082103729
-0.11237894743680954
-0.6077966690063477
-0.42231637239456177
-0.007863135077059269
0.4577367603778839
-0.4312417507171631
-0.04070282727479935
-0.4532769024372101
-0.9887415170669556
-0.5012606978416443
-0.4207455813884735
-0.33262377977371216
0.3574121594429016
-0.07170673459768295
-0.38798317313194275
-0.5392391085624695
0.32062867283821106
0.4344930350780487
0.24928182363510132
-0.4501267373561859
0.29304239153862
0.259159654378891
-0.40140074491500854
0.24439910054206848
0.32706379890441895
-0.5755465626716614
0.29409679770469666
-0.2372235357761383
-0.015611656941473484
-0.5734437704086304
-0.06615684926509857
0.2595967948436737
0.2681351900100708
-0.19508205354213715
-0.11608874797821045
0.5549283623695374
0.028993308544158936
0.3808082640171051
-0.005626635625958443
0.34627145528793335
-0.3273446559906006
0.3210794925689697
-0.12998412549495697
0.5972282886505127
0.40047377347946167
0.19614578783512115
-0.0690392479300499
0.2156148999929428
-0.06704717874526978
0.07009845972061157
0.6654529571533203
-0.07265139371156693
-0.7044467329978943
-0.4645000398159027
0.18974964320659637
0.05282709002494812
0.04588102549314499
-0.9684281349182129
0.2979968190193176
0.039268214255571365
-0.4737818241119385
-0.3714902698993683
0.49073946475982666
0.2711324691772461
0.4292043149471283
-0.649888813495636
-0.670087993144989
0.12365129590034485
-0.11930042505264282
-0.2778955101966858
0.26357734203338623
-0.40140974521636963
0.3562023341655731
-0.5171855092048645
0.3018665015697479
0.17002013325691223
0.026127688586711884
0.20503421127796173
0.23229652643203735
0.5556482076644897
0.06828799843788147
-0.35896942019462585
0.32825222611427307
0.2993071675300598
-0.24537095427513123
0.18915408849716187
-0.1836460530757904
-0.5615264773368835
-0.8105024099349976
0.4464646875858307
-0.33598172664642334
0.23477107286453247
-0.36633408069610596
0.590482771396637
0.17759448289871216
-0.42506128549575806
0.21377767622470856
-0.33906084299087524
0.48907792568206787
0.2642541527748108
-0.4006359875202179
0.14836998283863068
0.5021947622299194
-0.08448870480060577
-0.17212101817131042
-0.27280718088150024
-0.3254539966583252
0.19349415600299835
-0.1559622585773468
0.05770920589566231
-0.5525049567222595
-0.16573494672775269
-0.19545193016529083
0.3640603721141815
0.015360651537775993
0.0462154857814312
0.3998272716999054
0.1997094303369522
-0.25322142243385315
0.18072757124900818
0.18175868690013885
-0.23418326675891876
0.052181556820869446
0.25738438963890076
-0.7220708131790161
0.4681164026260376
-0.3821220397949219
0.32036980986595154
-0.02265266329050064
0.07534117996692657
-0.5847885608673096
-0.6727126836776733
0.17645052075386047
-0.1467375010251999
0.39564675092697144
-0.23492147028446198
0.17255477607250214
0.008060799911618233
-0.14461176097393036
0.23518860340118408
0.42246562242507935
-0.45280683040618896
0.2337164580821991
-0.2688445746898651
0.5713343620300293
0.037565380334854126
-0.5045515298843384
-0.7916944026947021
-0.27256590127944946
-0.5824730396270752
-0.18011093139648438
0.17374038696289062
0.31003186106681824
0.38355332612991333
-0.22361738979816437
-0.4444139003753662
0.26356881856918335
-0.11542397737503052
0.4824715852737427
-0.0732855424284935
0.34740495681762695
0.1095629632472992
-0.2255205661058426
0.22566482424736023
-0.23094221949577332
0.4456331133842468
0.009579562582075596
-0.45896849036216736
-0.28903162479400635
-0.2811991572380066
0.10663724690675735
-0.1374056041240692
0.6209401488304138
0.02356838434934616
0.1763262301683426
0.39307963848114014
-0.35681265592575073
-0.2466510534286499