layer number:0
conv2d
bias:0
4
[-0.131802499294281      -0.029893307015299797    0.0028547777328640223
  0.00021773426851723343]
--------------------------------------------------
kernel:0
5
[[[[ 0.12094081193208694   -0.13503848016262054
    -0.31405994296073914   -0.18260608613491058
    -0.06677357852458954  ]
   [-0.03258974850177765   -0.27633026242256165
    -0.36854425072669983   -0.2237786203622818
    -0.41074320673942566  ]
   [ 0.3015141189098358     0.043392363935709
     0.09598375111818314    0.0954538881778717
    -0.143239825963974    ]
   [ 0.26758962869644165    0.4066421687602997
     0.29785677790641785    0.0720599889755249
     0.24321240186691284  ]
   [ 0.1145707219839096     0.06857885420322418
     0.2987249195575714     0.36826831102371216
     0.4244948923587799   ]]]


 [[[-0.16275908052921295   -0.08814485371112823
     0.3366064131259918     0.47110405564308167
     0.540671706199646    ]
   [ 0.11065330356359482   -0.1945522576570511
    -0.34959739446640015   -0.4466167986392975
    -0.07059574872255325  ]
   [ 0.1121973842382431    -0.2202424556016922
    -0.5287442207336426    -0.5868663191795349
    -0.5228707194328308   ]
   [ 0.08109184354543686    0.23868918418884277
     0.011602583341300488   0.10395407676696777
    -0.10472102463245392  ]
   [ 0.0017353621078655124  0.2996217906475067
     0.3692188858985901     0.415828675031662
     0.1761917918920517   ]]]


 [[[ 0.335722416639328      0.5542969107627869
     0.019737770780920982  -0.1862146109342575
    -0.31779587268829346  ]
   [ 0.6566227674484253     0.6341848373413086
     0.292030394077301     -0.19081583619117737
    -0.3325592279434204   ]
   [ 0.4458130896091461     0.5123143196105957
     0.29455310106277466   -0.010093611665070057
     0.21775975823402405  ]
   [ 0.21767501533031464    0.2848081588745117
     0.20991459488868713    0.47371721267700195
     0.3033108413219452   ]
   [-0.12144314497709274    0.09653987735509872
     0.06940935552120209    0.2970958352088928
     0.35607239603996277  ]]]


 [[[ 0.05874847248196602    0.2186206430196762
     0.17725715041160583    0.10408142954111099
     0.3224627375602722   ]
   [-0.24491097033023834    0.02914690598845482
     0.3328206241130829     0.0065889861434698105
     0.4699955880641937   ]
   [-0.2621340751647949    -0.08690230548381805
     0.04522229731082916    0.28468769788742065
     0.32652080059051514  ]
   [-0.38878825306892395   -0.02491329237818718
     0.21377861499786377    0.3406021296977997
     0.5194692611694336   ]
   [-0.06637263298034668    0.0902465209364891
     0.21660782396793365    0.43707144260406494
     0.6217029094696045   ]]]]
--------------------------------------------------
***************
***************
***************
layer number:1
conv2d_1
bias:0
4
[-0.019748851656913757  0.10806728154420853   0.07957779616117477
 -0.009443067014217377]
--------------------------------------------------
kernel:0
3
[[[[ 0.18859189748764038    0.08750399202108383
     0.049590520560741425 ]
   [ 0.14352713525295258    0.26070713996887207
     0.5354060530662537   ]
   [ 0.4441196918487549     0.4412599503993988
     0.26693445444107056  ]]

  [[ 0.05051099509000778    0.43603911995887756
     0.06822697818279266  ]
   [ 0.6496349573135376     0.387290894985199
     0.591515064239502    ]
   [ 0.8669317364692688     0.5580070614814758
     0.7733663320541382   ]]

  [[ 0.016630766913294792   0.14327245950698853
     0.3266783654689789   ]
   [-0.052480828016996384   0.08680299669504166
     0.0070676193572580814]
   [ 0.23964817821979523    0.2831059396266937
     0.3623395264148712   ]]

  [[-0.2798522710800171    -0.19121459126472473
     0.011160577647387981 ]
   [-0.18664047122001648   -0.22185999155044556
     0.11717060208320618  ]
   [ 0.12145017087459564   -0.05965014547109604
    -0.2633453607559204   ]]]


 [[[ 0.14737537503242493    0.04910292103886604
     0.345766544342041    ]
   [ 0.32870396971702576    0.29887425899505615
     0.37533947825431824  ]
   [ 0.31633010506629944   -0.07036148756742477
     0.4694332778453827   ]]

  [[ 0.5089027881622314     0.2421545535326004
    -0.11202672868967056  ]
   [-0.009354731068015099  -0.1684388965368271
    -0.14769919216632843  ]
   [ 0.21461543440818787    0.11099418252706528
    -0.16411340236663818  ]]

  [[-0.6475995779037476    -0.5416791439056396
    -0.030464215204119682 ]
   [-0.11043581366539001   -0.17978905141353607
    -0.21063286066055298  ]
   [ 0.3439215421676636     0.14289936423301697
    -0.06461785733699799  ]]

  [[-0.37626469135284424   -0.3332367539405823
     0.06476888805627823  ]
   [-0.11635822802782059   -0.044357188045978546
     0.11423351615667343  ]
   [ 0.036590974777936935   0.13883624970912933
     0.35414984822273254  ]]]


 [[[-0.6124906539916992    -0.19187848269939423
    -0.28141844272613525  ]
   [-0.5417295694351196    -0.2958911061286926
     0.0900065079331398   ]
   [-0.26635247468948364   -0.18385210633277893
     0.07725853472948074  ]]

  [[-0.579261302947998      0.09441531449556351
     0.14420868456363678  ]
   [-0.9325687885284424     0.0656462088227272
     0.21633097529411316  ]
   [-0.5542498826980591     0.18943877518177032
    -0.06609455496072769  ]]

  [[-0.41015106439590454    0.015938933938741684
     0.041087888181209564 ]
   [-0.1671369969844818     0.2642759680747986
     0.18401451408863068  ]
   [ 0.33706986904144287    0.21747897565364838
     0.04939299076795578  ]]

  [[ 0.4938129186630249    -0.07561031728982925
    -0.2252570241689682   ]
   [ 0.4173690676689148    -0.10027666389942169
    -0.43272626399993896  ]
   [ 0.21063700318336487   -0.0811198279261589
    -0.18516398966312408  ]]]


 [[[ 0.04038424789905548   -0.17297521233558655
    -0.34134170413017273  ]
   [ 0.037815533578395844   0.08353652060031891
     0.09029465168714523  ]
   [-0.017977550625801086  -0.027867073193192482
     0.1183069497346878   ]]

  [[ 0.33673471212387085    0.01666427031159401
    -0.060760948807001114 ]
   [ 0.49143141508102417    0.15619578957557678
     0.013098795898258686 ]
   [ 0.2559203803539276     0.08605023473501205
    -0.04701864719390869  ]]

  [[ 0.24658820033073425    0.1067063957452774
     0.5069133639335632   ]
   [ 0.3384592831134796     0.20732294023036957
     0.19721435010433197  ]
   [-0.3147212862968445    -0.17929355800151825
    -0.1580228954553604   ]]

  [[ 0.15885324776172638   -0.009726743213832378
     0.6223734617233276   ]
   [-0.017092779278755188   0.1205180361866951
     0.29832723736763     ]
   [-0.23291075229644775   -0.09010311216115952
     0.02761799469590187  ]]]]
--------------------------------------------------
***************
***************
***************
layer number:2
dense
bias:0
25
[ 0.08586835861206055    0.08108460903167725   -0.09911621361970901
  0.13690143823623657    0.04347629472613335   -0.026762323454022408
 -0.07961741089820862   -0.014401464723050594   0.01626984030008316
  0.0009879698045551777  0.07977782189846039   -0.05901796370744705
  0.04869164526462555   -0.011999591253697872   0.17038248479366302
 -0.048462897539138794   0.030648110434412956  -0.015348728746175766
  0.05134047567844391    0.0433867946267128     0.0823284238576889
  0.05995328724384308   -0.010062171146273613  -0.030082793906331062
  0.011004344560205936 ]
--------------------------------------------------
kernel:0
100
[[ 1.1948592960834503e-02  5.1996409893035889e-02  1.1924365162849426e-01
   3.5227335989475250e-02  1.2027253955602646e-01  1.2126246839761734e-01
   7.5471512973308563e-02 -3.9317530393600464e-01  2.9668195173144341e-02
  -1.0231337696313858e-01  2.4126911163330078e-01 -3.7367239128798246e-03
   9.1433994472026825e-02 -4.0920677781105042e-01 -2.4415600299835205e-01
   4.3339006602764130e-02  1.0881318897008896e-01  8.0074720084667206e-02
  -1.1555369943380356e-01 -1.0847631841897964e-01 -1.7333441972732544e-01
   1.1462488025426865e-01 -1.1294884234666824e-01  2.4586856365203857e-01
   4.0892839431762695e-02]
 [ 3.5150960087776184e-02  1.3246786594390869e-01 -2.2266399860382080e-01
   2.0447635650634766e-01  7.7954262495040894e-02  1.5194775164127350e-01
   1.4315532147884369e-01 -2.1769115701317787e-02 -2.0520971715450287e-01
   1.5423265099525452e-01 -8.2622162997722626e-02  1.5420299768447876e-01
   1.0576932691037655e-02  8.8343709707260132e-02  3.0442324280738831e-01
   9.0865671634674072e-02 -1.9089362025260925e-01  1.2010211497545242e-01
   7.8452736139297485e-02 -2.2250134497880936e-02  4.0847476571798325e-02
   2.1462155878543854e-01 -5.1391996443271637e-02  7.0517230778932571e-03
   1.6801454126834869e-02]
 [-6.7348361015319824e-01 -2.1231599152088165e-01 -2.7923312783241272e-01
  -2.5426648557186127e-02 -4.9385582096874714e-03 -5.8786336332559586e-02
  -3.4209308028221130e-01  1.1182271689176559e-01  1.7748908698558807e-01
  -5.7372298091650009e-02 -2.1264868974685669e-01  1.9461978971958160e-01
  -5.6507689878344536e-03  6.5044112503528595e-02  2.1408893167972565e-01
   2.9291880782693624e-03 -1.8189163878560066e-02 -3.0520733445882797e-02
   5.5243488401174545e-02  5.6604709476232529e-02  4.4888031482696533e-01
   3.4368434548377991e-01 -6.7116469144821167e-02 -1.7678701877593994e-01
   3.6207795143127441e-01]
 [-3.3537283539772034e-01  3.1702199578285217e-01  3.7713740020990372e-02
   6.3696473836898804e-02 -8.0015555024147034e-02  2.1976719796657562e-01
   3.6633454263210297e-02 -2.2204716503620148e-01  6.7651316523551941e-02
  -1.1047302186489105e-01 -5.9468567371368408e-02 -1.3200764544308186e-02
   3.1252685934305191e-02  2.4667434394359589e-02 -1.1889045126736164e-02
  -1.8107298016548157e-01  4.6363566070795059e-03 -2.8304335474967957e-01
  -7.1956172585487366e-02  4.0585394948720932e-02 -1.7154054343700409e-01
   1.5507449209690094e-01 -7.4123866856098175e-02  3.4592112898826599e-01
   5.1628336310386658e-02]
 [-7.1552217006683350e-02 -1.0395035147666931e-01  3.0626447871327400e-02
  -1.0759585350751877e-01  1.8281809985637665e-01 -1.5358725190162659e-01
   3.5523563623428345e-01 -3.1877496838569641e-01  8.1431344151496887e-02
  -9.7722813487052917e-02  1.6254034638404846e-01 -1.3947143219411373e-02
   7.9105116426944733e-02 -3.1679131090641022e-02 -1.6098323464393616e-01
  -2.5801178812980652e-01 -1.8602651357650757e-01 -9.8722785711288452e-02
  -1.0470521450042725e-01  2.3958392441272736e-01 -5.3279902786016464e-02
   6.3039802014827728e-02  1.9851949810981750e-01  1.5579539537429810e-01
  -1.2720094621181488e-01]
 [-1.4681257307529449e-01 -1.9342718645930290e-02 -2.3377418518066406e-01
   2.5028857588768005e-01 -4.2422063648700714e-02  1.6433244943618774e-01
   3.0443775653839111e-01  3.1965050101280212e-01 -3.1858670711517334e-01
  -2.3840460926294327e-02 -6.1700064688920975e-02 -1.6799919307231903e-01
  -8.8316842913627625e-02  3.5603944212198257e-02  7.5478404760360718e-02
   3.3004522323608398e-01 -4.2240288108587265e-02  5.2313644438982010e-02
  -2.0390962064266205e-01  1.7662367224693298e-01  1.2388728559017181e-01
   1.9379606842994690e-01 -5.3365722298622131e-02  1.1528652161359787e-01
   4.1976016014814377e-02]
 [-4.0926310420036316e-01 -1.9984035193920135e-01 -4.5693141222000122e-01
  -1.0214482992887497e-01 -4.6439364552497864e-02  6.1133410781621933e-02
  -2.9430329799652100e-01 -9.7326919436454773e-02 -2.0918268710374832e-02
  -2.2481524944305420e-01 -3.4755799174308777e-01  2.8644651174545288e-01
  -3.7676747888326645e-03  1.2756340205669403e-01  4.2305059731006622e-02
   3.1275108456611633e-01  2.6357816532254219e-02  8.8797993957996368e-02
   2.9942569136619568e-01  1.7802619934082031e-01  3.4847059845924377e-01
   6.7075884342193604e-01 -8.1860207021236420e-02  7.4490092694759369e-02
   8.0420859158039093e-02]
 [-2.7518229559063911e-02  2.0888260006904602e-01  8.3991438150405884e-02
  -7.0068471133708954e-02  1.5791925787925720e-01  2.2129815816879272e-01
   3.0300263315439224e-02 -1.1120082437992096e-01  1.4186902344226837e-01
  -3.8379784673452377e-03  7.7709242701530457e-02 -1.8997293710708618e-01
   2.9324856400489807e-01 -1.7872671782970428e-01 -1.1261376738548279e-01
  -1.7831300199031830e-01  6.6886052489280701e-02 -1.2205451726913452e-01
   4.6747718006372452e-02  2.2010433673858643e-01 -3.5511249303817749e-01
   1.8605074286460876e-01 -1.1587296426296234e-01  3.5594083368778229e-02
  -1.9331553578376770e-01]
 [-3.5606376826763153e-02  1.3844074308872223e-01  3.9307914674282074e-02
   1.1145475506782532e-01  6.0324434190988541e-02 -5.7301681488752365e-02
  -2.4688892066478729e-02 -1.0186417028307915e-02  2.1495212614536285e-01
  -3.5772923380136490e-02  2.0371416211128235e-01  1.2493272870779037e-01
   8.2437142729759216e-02 -5.6976713240146637e-02  1.2396221049129963e-02
  -1.6424861550331116e-01  2.4706253781914711e-02  1.1255666613578796e-02
   2.0755806565284729e-01 -1.4883944392204285e-01 -1.7884774506092072e-01
  -2.6298958063125610e-01 -4.6438671648502350e-02  2.4663496017456055e-01
  -4.5582932233810425e-01]
 [-9.0938948094844818e-02  2.3021298646926880e-01 -2.5131585076451302e-02
   1.0279435664415359e-01  1.2450210750102997e-01  1.1893209069967270e-01
   4.4130128622055054e-01  1.9488552212715149e-01 -3.0916914343833923e-01
  -3.6836564540863037e-01 -7.2638653218746185e-02 -9.1705568134784698e-02
  -8.9047327637672424e-02  2.0155833661556244e-01 -4.0085786022245884e-03
   2.8713229298591614e-01  3.5186746716499329e-01  8.7533168494701385e-02
  -7.7405385673046112e-02  4.1666366159915924e-02  5.7687837630510330e-02
   3.2939714193344116e-01  1.4231894910335541e-01  2.1797927096486092e-02
   1.8834164738655090e-01]
 [-3.4039285778999329e-01  3.6934360861778259e-01  5.4846324026584625e-02
  -2.6738607883453369e-01 -1.1311709880828857e-01 -8.0924071371555328e-02
  -7.7508836984634399e-02  2.8459903597831726e-01  2.6769208908081055e-01
  -2.2918240725994110e-01 -5.8265388011932373e-02  3.7037175893783569e-01
  -5.2387636154890060e-02  2.8609669208526611e-01  2.1405224502086639e-01
   4.1035249829292297e-01 -7.1472607553005219e-02  1.1310953646898270e-01
   1.6872607171535492e-01 -4.9066111445426941e-02  3.5495325922966003e-01
   7.3738300800323486e-01  1.6953407227993011e-01  6.4779110252857208e-02
   1.4569514989852905e-01]
 [ 2.0895130932331085e-01 -7.8505165874958038e-02  1.8606127798557281e-01
  -3.4516947343945503e-03  4.1966993361711502e-02  3.0922988057136536e-01
  -1.1992445588111877e-01  9.6521392464637756e-02  1.1610870808362961e-01
   5.9303566813468933e-02 -9.4406329095363617e-02 -1.2281586974859238e-01
   4.7435727715492249e-01 -3.4638190269470215e-01 -1.4344507455825806e-01
  -7.1032322943210602e-02 -2.1772998571395874e-01 -3.4340150654315948e-02
  -1.0965973883867264e-01  3.0305239558219910e-01 -2.7389973402023315e-01
  -2.5014501810073853e-01 -1.7191357910633087e-01  2.0950730144977570e-01
  -9.7079120576381683e-02]
 [ 1.5830835327506065e-02 -1.7836447060108185e-01 -9.6058500930666924e-03
   1.4404933154582977e-01 -1.0474646836519241e-01  2.7325314283370972e-01
   2.5820660591125488e-01 -2.1056793630123138e-01  2.1950502693653107e-01
   1.2357564270496368e-01 -9.2573642730712891e-02  1.3410232961177826e-01
  -3.1099807471036911e-02 -2.5577735900878906e-01 -1.2880003079771996e-02
  -2.0338194072246552e-01  2.7961257845163345e-02 -1.4259991049766541e-01
   1.0293460637331009e-01  3.5117711871862411e-02 -3.8431882858276367e-02
  -6.4967237412929535e-02 -9.4978854060173035e-02 -1.7739191651344299e-02
  -3.1602707505226135e-01]
 [-7.9236991703510284e-02  1.6931377351284027e-01  1.3820582628250122e-01
  -1.6670613549649715e-03 -5.8082196861505508e-02 -2.0853810012340546e-01
   2.3719352483749390e-01 -9.6393741667270660e-02 -2.1111482381820679e-01
  -2.7539586648344994e-02  7.6883628964424133e-02 -3.9329931139945984e-02
  -2.3193174600601196e-01  4.4886142015457153e-01  1.8755388259887695e-01
   1.7454881966114044e-01  1.7750351130962372e-01  5.7277817279100418e-02
  -2.3683032393455505e-01 -5.4117247462272644e-02  2.1098385751247406e-01
   9.4068743288516998e-02  4.7074247151613235e-02  2.4290159344673157e-01
   1.8940238654613495e-01]
 [-1.0108965635299683e-01  1.5945625305175781e-01  8.7746888399124146e-02
  -2.0709787309169769e-01  1.9172739982604980e-01 -2.7387160807847977e-02
   1.7698127031326294e-01  3.0900013446807861e-01  1.2188803404569626e-01
  -2.0141771435737610e-01  1.4862412214279175e-01  1.4906500279903412e-01
   9.1647453606128693e-02  6.3324861228466034e-02 -5.8775320649147034e-02
   2.5660129263997078e-02  3.8120523095130920e-01  3.5619151592254639e-01
  -3.1585413217544556e-01  6.9761604070663452e-02  1.4758992195129395e-01
   4.7319811582565308e-01  2.9385849833488464e-01 -2.2446057200431824e-01
   2.4385942518711090e-01]
 [ 3.1100854277610779e-01 -7.4821370840072632e-01 -2.5961697101593018e-01
   4.7521172091364861e-03  9.5112016424536705e-03  2.2179588675498962e-01
   8.2049995660781860e-02  2.8178611770272255e-02  7.2035804390907288e-02
   1.7896342277526855e-01  1.9491064548492432e-01  6.2057081609964371e-02
   3.4990966320037842e-01 -1.3302731513977051e-01 -2.6733845472335815e-01
  -2.8310316801071167e-01 -1.1604042723774910e-02 -1.8091322481632233e-01
   8.4384024143218994e-02  7.6614134013652802e-02 -2.7632406353950500e-01
  -2.8290325403213501e-01 -9.0217165648937225e-02  1.9082044064998627e-01
  -2.2564406692981720e-01]
 [ 1.5813562273979187e-01 -3.5153478384017944e-01 -1.3317070901393890e-01
   1.4143304899334908e-02  1.3059471547603607e-01  2.3978045582771301e-01
  -1.7596226930618286e-01 -2.4748407304286957e-02  1.0680217295885086e-01
   1.1690997332334518e-01  3.3892352133989334e-02  2.7247038483619690e-01
  -4.9022622406482697e-02  1.6370340017601848e-03 -6.8603642284870148e-03
   3.8569085299968719e-02  2.8234887123107910e-01 -9.6661031246185303e-02
   1.5042816102504730e-01  7.0387639105319977e-02 -4.5145463198423386e-02
   7.2800517082214355e-02  2.4252176284790039e-02 -8.6337015032768250e-02
  -2.7719002962112427e-01]
 [ 6.4499974250793457e-02  6.2190495431423187e-02  2.2918026894330978e-02
  -1.4141362905502319e-01  1.4501094818115234e-01  4.6155348420143127e-02
   8.3431206643581390e-02 -2.2836585342884064e-01 -1.6380918025970459e-01
  -2.2814454138278961e-01  8.4344416856765747e-02 -3.4901893138885498e-01
   5.4164744913578033e-02  2.1441833674907684e-01  2.2374521195888519e-01
   3.1599864363670349e-01  8.2847021520137787e-02  7.9782329499721527e-02
   1.5041697025299072e-01 -1.5634985268115997e-01  2.1252479404211044e-02
   1.7873196303844452e-01 -4.1610941290855408e-02 -8.1710651516914368e-02
   5.7610105723142624e-02]
 [ 1.2265490740537643e-01 -2.6683911681175232e-01 -2.7027866244316101e-01
  -3.5811129212379456e-01  2.7601143717765808e-01 -7.9306863248348236e-02
   9.9439062178134918e-02  2.5605436414480209e-02  1.0922469943761826e-01
  -2.5032275915145874e-01  2.7711240109056234e-03  1.8511436879634857e-01
   1.7631043493747711e-01  1.7712050676345825e-01 -7.0899516344070435e-02
  -1.2612143158912659e-01  2.9796794056892395e-01  3.9773342013359070e-01
  -1.0980670154094696e-01  1.0790439695119858e-01 -8.1284441053867340e-02
   4.1643834114074707e-01  1.1775860190391541e-01 -1.2151969224214554e-01
  -1.8228495493531227e-02]
 [-1.9191166386008263e-02 -7.0626944303512573e-01 -3.1268349289894104e-01
  -1.3415426015853882e-01 -1.9775253534317017e-01  3.7220069207251072e-03
  -2.2407552599906921e-01 -9.5452852547168732e-02  2.3762889206409454e-01
   1.0733214765787125e-01 -1.9869379699230194e-01  5.1200181245803833e-02
  -8.6246922612190247e-02 -5.5841341614723206e-02 -3.3487394452095032e-01
   1.5015619993209839e-01 -1.6208817064762115e-01 -4.3178297579288483e-02
   2.6959943771362305e-01  1.1385311931371689e-01  1.1191189289093018e-01
   9.0341314673423767e-02  4.7616485506296158e-02  9.8179750144481659e-02
  -6.4985595643520355e-02]
 [-1.4054827392101288e-01 -1.6437737271189690e-02  1.6181826591491699e-01
  -1.3581398129463196e-01  2.4316090345382690e-01 -1.0585954040288925e-01
  -1.8082807958126068e-01 -1.5633110702037811e-01  2.3683942854404449e-01
   4.7079227864742279e-02 -1.1070430278778076e-01 -7.7879324555397034e-02
  -1.3575434684753418e-01 -1.4593636989593506e-01  5.9702903032302856e-02
  -8.3135753870010376e-02 -7.5797833502292633e-02 -2.4164241552352905e-01
  -2.5625339150428772e-01  3.3041918277740479e-01 -3.3366579562425613e-02
  -3.6916229873895645e-02 -1.7063684761524200e-01  1.6082659363746643e-01
   1.3052693009376526e-01]
 [-7.9807437956333160e-02  2.8833303600549698e-02 -1.6283278167247772e-01
   1.2402357906103134e-01 -1.8891547620296478e-01  1.5220019221305847e-01
  -1.4180749654769897e-02  1.1401862651109695e-01 -2.1877771615982056e-01
  -2.7781671285629272e-01 -2.9547443613409996e-02 -4.4400580227375031e-02
  -1.2602220475673676e-01 -3.7919957190752029e-02  3.4350294619798660e-02
   1.9818702712655067e-02  1.0960055142641068e-01  6.0345258563756943e-02
  -2.9967394471168518e-01  1.1302316188812256e-01 -2.0532061159610748e-01
   1.5802691876888275e-01 -2.8494912385940552e-01  2.5166147947311401e-01
   2.0092609524726868e-01]
 [-3.8420930504798889e-01 -1.5197089314460754e-01 -7.0063340663909912e-01
   2.2541193664073944e-01 -2.6030603051185608e-01  1.7703507840633392e-01
  -3.4405362606048584e-01 -4.5119851827621460e-01  8.2342810928821564e-02
   1.7579855024814606e-01 -3.4045506268739700e-02 -1.0824860632419586e-01
  -3.3829841017723083e-01 -1.0683977976441383e-02  9.3339107930660248e-02
   2.2123742848634720e-02 -1.3377682864665985e-01  5.7844236493110657e-02
  -4.2460493743419647e-02  9.3133635818958282e-02  6.0297298431396484e-01
  -9.8549418151378632e-02 -7.8726321458816528e-02 -7.4055381119251251e-02
   3.8321898318827152e-03]
 [-9.9018096923828125e-02  1.8689459562301636e-01  2.4001255631446838e-02
   5.3825940936803818e-02 -1.1646933853626251e-01  6.6453933715820312e-02
   1.2133555114269257e-01  1.8049530684947968e-01  2.5511538982391357e-01
  -6.3525892794132233e-02  7.7672943472862244e-02  9.0063869953155518e-02
  -1.0438026487827301e-01 -2.2182619199156761e-02 -4.1540820151567459e-02
   9.4028718769550323e-02  1.1289230734109879e-01  1.2104319781064987e-01
   1.1414962261915207e-01  1.6662663221359253e-01  2.3659719526767731e-01
   6.0444190166890621e-03  7.5161449611186981e-02  2.6135358214378357e-01
  -9.6818506717681885e-02]
 [-1.1844553053379059e-01 -9.9763810634613037e-02  9.5617115497589111e-02
   2.2440682351589203e-01  1.4117223024368286e-01 -1.0149454325437546e-01
   1.0017940774559975e-02 -3.7444695830345154e-02  4.4846799969673157e-01
  -7.6216883957386017e-02  1.0346487909555435e-01  9.2337727546691895e-02
   1.2665517628192902e-01 -2.5003135204315186e-01 -3.4412793815135956e-02
   4.4257700443267822e-02 -4.6785291284322739e-02 -8.0091115087270737e-03
  -2.2438335418701172e-01 -3.7954084575176239e-02 -4.3194852769374847e-02
   3.3207207918167114e-02  7.5731135904788971e-02 -9.3136429786682129e-02
   3.0417280271649361e-02]
 [-8.6846105754375458e-02  2.4769623577594757e-01 -7.0644174702465534e-03
   3.0674254894256592e-01  4.6141974627971649e-02 -2.5447538122534752e-02
   1.3189814984798431e-01  1.6202633082866669e-01 -4.0444278717041016e-01
  -1.2207788974046707e-01  3.4328408539295197e-02 -2.0992368459701538e-01
   1.0170716792345047e-02  1.5368580818176270e-01 -4.5021172612905502e-02
   7.1270905435085297e-02  2.0187464356422424e-01 -5.0150524824857712e-02
   3.0680511146783829e-02  6.3988171517848969e-02  1.2416562531143427e-03
   3.8049209117889404e-01 -1.6856884956359863e-01  1.4183825254440308e-01
   3.5004194825887680e-02]
 [-2.7169942855834961e-01 -2.3845225572586060e-01 -5.8573448657989502e-01
   1.1644432693719864e-01  9.3286586925387383e-03  5.9210982173681259e-02
  -1.4091606438159943e-01  2.9511144384741783e-02  5.1197651773691177e-02
  -6.0435365885496140e-03 -1.0085717588663101e-01 -9.1584883630275726e-02
  -1.3117408752441406e-01  1.4026340842247009e-01  2.9530999064445496e-01
   1.2909334152936935e-02  3.5830521583557129e-01  1.3888807594776154e-01
  -8.7395280599594116e-02  1.6553837060928345e-01  3.7804758548736572e-01
   3.8013311568647623e-03  4.7088276594877243e-02  7.0447802543640137e-02
   8.2179456949234009e-02]
 [-2.6052497327327728e-02  4.5059278607368469e-01 -1.4029460959136486e-02
   1.2672589719295502e-01 -6.0403391718864441e-02 -3.9917670190334320e-02
  -1.8239301443099976e-01  2.7213746309280396e-01  4.8548512160778046e-02
   4.0038939565420151e-02  4.7625303268432617e-02 -1.5707969665527344e-01
  -2.1288874745368958e-01 -1.6534668207168579e-01  8.5704781115055084e-02
   2.5012555718421936e-01  1.4171171188354492e-01  3.3248883485794067e-01
  -3.6453675478696823e-02 -8.6241573095321655e-02  1.2539593875408173e-01
  -5.4983086884021759e-03 -2.6192240417003632e-02  2.4311876296997070e-01
  -2.3588521778583527e-01]
 [-3.5630818456411362e-02  2.0837697666138411e-03  3.2633062452077866e-02
   1.5835541486740112e-01  1.2668415904045105e-02 -7.0467405021190643e-02
  -3.1657391786575317e-01  5.2511971443891525e-02  3.2192206382751465e-01
   4.7914650291204453e-02 -3.6543812602758408e-02  5.5368836969137192e-02
   3.1893271207809448e-01 -2.9503047466278076e-01 -8.6489647626876831e-02
  -1.8601699173450470e-01 -5.2897848188877106e-02  3.3318714122287929e-04
   4.0935236960649490e-02  6.2658488750457764e-02 -8.5220910608768463e-02
   6.9451056420803070e-02  1.4044463634490967e-01 -1.7817354202270508e-01
  -7.4277684092521667e-02]
 [-1.1526754498481750e-01  4.0627051144838333e-02  8.2273267209529877e-02
   3.0605897307395935e-01  3.0011373758316040e-01  1.2494330108165741e-01
   6.7900463938713074e-02  1.2916451692581177e-01 -1.3586269319057465e-01
  -2.0053741335868835e-01  1.5583400614559650e-02 -2.1553386747837067e-01
   3.1173987314105034e-02  3.0381265282630920e-01 -1.4908830821514130e-01
   2.3686143755912781e-01  3.9559262990951538e-01 -3.7133552134037018e-02
  -5.5755522102117538e-02  2.9263252019882202e-01 -1.9714748859405518e-01
   1.7535360157489777e-01 -2.9021733999252319e-01  1.5732404589653015e-01
  -1.1287892609834671e-01]
 [-3.1721913814544678e-01  3.6757838726043701e-01 -2.0891959965229034e-01
  -6.8992041051387787e-02 -4.9709163606166840e-02 -9.3744441866874695e-02
  -6.4174234867095947e-02  2.1823672950267792e-01 -8.6592011153697968e-02
  -1.9735606014728546e-01  3.7641156464815140e-02  7.8006513416767120e-02
  -6.3575826585292816e-02  7.8134298324584961e-02  1.9534659385681152e-01
   2.0521979033946991e-01  2.7025179937481880e-02  1.1541714519262314e-01
   2.5108289718627930e-01  8.9527212549000978e-04  1.4344491064548492e-01
  -4.2776171118021011e-02  1.7415036261081696e-01  5.1460828632116318e-02
   3.1208190321922302e-01]
 [ 3.2118648290634155e-01 -9.9214732646942139e-02 -1.4124920126050711e-03
   4.9190662801265717e-02  2.1024656295776367e-01  8.5668779909610748e-02
  -8.1254094839096069e-02 -6.2489029020071030e-02  1.3145126402378082e-01
   6.3892640173435211e-02  6.7439354956150055e-02 -1.5156219899654388e-01
   2.4196512531489134e-03 -9.1936416923999786e-02 -5.7276081293821335e-02
   2.3381192982196808e-01 -3.0896699428558350e-01  3.5882692784070969e-02
   1.0350604541599751e-02  2.6126598939299583e-02 -1.7563197016716003e-01
  -4.2485114187002182e-02 -2.2395301610231400e-02  2.0672781765460968e-01
  -1.1828085407614708e-02]
 [ 1.4539384841918945e-01 -1.3924002647399902e-01  1.4349843561649323e-01
   1.2273286469280720e-02 -1.9367225468158722e-01  1.5491959452629089e-01
  -1.5794183313846588e-01 -3.8441356271505356e-02 -1.1204033158719540e-02
  -6.1675002798438072e-03  2.2931001149117947e-03  2.9359519481658936e-01
   1.7626725137233734e-01 -9.8550133407115936e-02  1.6434237360954285e-02
  -9.9468663334846497e-02 -4.9850087612867355e-02 -2.3759087920188904e-01
   1.1107186786830425e-02  4.0691893547773361e-02  2.6243600249290466e-01
  -4.8999689519405365e-02  3.4045311808586121e-01 -1.3098444044589996e-01
   1.6037434339523315e-01]
 [-5.1657713949680328e-02 -9.2839166522026062e-02  1.9676971435546875e-01
   2.1036584675312042e-01  3.6740401387214661e-01 -4.4746040366590023e-03
   1.7563482746481895e-02 -2.7092781662940979e-01 -1.3047534227371216e-01
  -2.2647407650947571e-01 -1.4444805681705475e-01 -2.0977464318275452e-01
  -2.2415107488632202e-01  1.5934076905250549e-01  8.9011095464229584e-02
   1.6118468344211578e-01  3.6420881748199463e-01  8.9663211256265640e-03
  -1.7159476876258850e-01  1.0539682209491730e-01 -3.0964601039886475e-01
   1.0320073366165161e-01 -5.1766014099121094e-01  1.6368508338928223e-01
  -2.8356811404228210e-01]
 [ 3.3362504839897156e-01  2.0232009887695312e-01  5.2892435342073441e-02
  -3.2268661260604858e-01  3.7645056843757629e-01 -1.0577645897865295e-01
   2.3534305393695831e-01  4.7843340784311295e-02  2.7778965234756470e-01
  -4.1006956249475479e-02  3.9523279666900635e-01 -1.3385654985904694e-01
   9.6189245581626892e-02  2.2528783977031708e-01  1.0559238493442535e-01
   1.8490082025527954e-01 -4.3219391256570816e-02  1.6526372730731964e-01
  -8.7288908660411835e-02  2.8393611311912537e-01  1.3784493505954742e-01
   1.0168984532356262e-01  1.0719814151525497e-01 -5.0106294453144073e-02
   1.6640736162662506e-01]
 [ 1.6590102016925812e-01 -3.1090095639228821e-01 -1.1499249190092087e-01
   4.0784779936075211e-02  4.0591517463326454e-03  2.1925641223788261e-02
   2.2643887996673584e-01 -2.2952002286911011e-01 -1.5332961082458496e-01
  -3.2580576837062836e-02  1.3012132048606873e-01 -1.8722875416278839e-01
  -7.5084090232849121e-02 -8.9632794260978699e-02 -1.6798409819602966e-01
  -4.8560526221990585e-02  7.5066551566123962e-02  2.3660479485988617e-01
   1.0029333084821701e-01 -1.0073668509721756e-01  1.2522815167903900e-01
   4.5041576027870178e-02 -4.2686723172664642e-02  2.0163589715957642e-01
  -5.9801316820085049e-03]
 [ 3.6935780197381973e-02 -2.0079487562179565e-01  5.1402695477008820e-02
  -3.5986430943012238e-02 -1.0413697361946106e-01  1.0978492349386215e-01
  -7.7653251588344574e-02  7.9987242817878723e-02  7.0814125239849091e-02
   8.8671348989009857e-02  1.0182735510170460e-02  1.4651767909526825e-02
  -5.3122777491807938e-02  1.6952925361692905e-03  5.5584300309419632e-02
  -2.0244248211383820e-01 -4.7604486346244812e-02 -1.2047018110752106e-01
   2.6313385367393494e-01  3.4140191972255707e-02  6.8130798637866974e-02
   1.8766513466835022e-01  1.8864387273788452e-01  9.3799516558647156e-02
  -7.1645326912403107e-02]
 [-1.7899090424180031e-02  1.1654335260391235e-01 -6.3514508306980133e-02
   3.3981016278266907e-01 -9.2364087700843811e-02  1.0771803557872772e-02
   3.1127076596021652e-02 -1.2903823517262936e-02 -2.7832338213920593e-01
   3.3092173933982849e-01 -7.7988557517528534e-02 -1.6577799618244171e-01
  -1.9336400926113129e-01 -6.5493561327457428e-02  1.0967212915420532e-01
   2.3430576920509338e-01  1.9711144268512726e-01 -7.8221233561635017e-03
  -2.7051883935928345e-01  1.2156567536294460e-02 -1.0983602702617645e-01
   8.0288164317607880e-02 -2.5149634480476379e-01  2.7597770094871521e-01
  -3.0067768692970276e-01]
 [ 2.2605007886886597e-01 -2.3492294549942017e-01  3.6955378949642181e-02
  -4.3901136517524719e-01  4.0861809253692627e-01 -2.0572365820407867e-01
  -4.5332279056310654e-02  3.5267528146505356e-02  1.7904768884181976e-01
  -1.1141341924667358e-01  1.2494321912527084e-01 -3.0392441153526306e-01
   9.0419687330722809e-02  6.8483255803585052e-02  5.5129837989807129e-01
  -1.7690856754779816e-01 -5.5236771702766418e-02  3.5238501429557800e-01
  -1.7905783653259277e-01  1.7884482443332672e-01 -3.1201630830764771e-01
   6.2768124043941498e-02 -4.8317320644855499e-02  1.3321679830551147e-01
   2.6785712689161301e-02]
 [ 6.5335325896739960e-02 -3.1201636791229248e-01 -1.4806833863258362e-01
   5.3369455039501190e-02  1.8824115395545959e-01 -8.4027489647269249e-03
   7.9251915216445923e-02 -8.2391919568181038e-03  9.7253648564219475e-03
  -2.1121811866760254e-01  3.8760542869567871e-02 -2.5434714555740356e-01
   3.4401487559080124e-02 -6.3504531979560852e-02  7.8402943909168243e-02
   1.8934699892997742e-01  6.6959999501705170e-02  1.9255283474922180e-01
   3.2070711255073547e-01 -2.5869449973106384e-01 -1.8511034548282623e-02
  -4.6523891389369965e-02  1.4260854572057724e-02  2.5823596119880676e-01
  -2.0367865264415741e-01]
 [ 3.7448558956384659e-02  1.9653480499982834e-02  1.4913001656532288e-01
   1.6628526151180267e-01 -7.8547380864620209e-02 -8.7770503014326096e-03
  -2.5031077861785889e-01 -2.9948958754539490e-01  9.2825457453727722e-02
   2.2621788084506989e-01 -1.7880901694297791e-01 -1.5828792750835419e-01
   1.0327114164829254e-01 -1.7485415935516357e-01 -3.9996188133955002e-02
   5.1325734704732895e-02 -8.4632992744445801e-02  1.4828370511531830e-01
   3.9642684161663055e-02 -1.0436644777655602e-02  2.4304263293743134e-02
  -1.5969303250312805e-01  1.0028078407049179e-01 -1.6665372252464294e-01
   1.3140161335468292e-01]
 [ 2.5162008404731750e-01  1.1377700418233871e-01  2.0455475151538849e-01
   1.7311818897724152e-01  9.8031647503376007e-03 -3.5573430359363556e-02
   1.7901090905070305e-02 -9.4572059810161591e-02  2.0888881408609450e-04
  -2.1425895392894745e-01 -4.4454123824834824e-02 -2.2367235273122787e-02
   1.3072097301483154e-01 -1.8950490280985832e-02  9.1107957065105438e-02
   2.3077017068862915e-01  1.8073765560984612e-02 -4.4745355844497681e-02
  -1.2103085219860077e-01  2.2218607366085052e-01 -9.3642927706241608e-02
   1.4220024645328522e-01  2.2615987807512283e-02  2.9830718040466309e-01
   2.4117477238178253e-01]
 [ 8.2261085510253906e-02 -1.4115707576274872e-01 -6.9871002435684204e-01
   9.4311442226171494e-03 -1.0515807569026947e-01  1.1224153637886047e-01
  -5.3878372907638550e-01 -1.3300198316574097e-01 -5.3176581859588623e-01
  -8.8892258703708649e-02  7.1887932717800140e-02 -1.2074489146471024e-01
  -1.8310490250587463e-01 -1.3105867803096771e-01  1.0602411627769470e-01
  -3.1549221277236938e-01  1.1132162064313889e-01  3.1480917334556580e-01
   1.5556272864341736e-01  3.7241999059915543e-02  3.6142864823341370e-01
   1.3019403815269470e-01 -3.0502271652221680e-01 -8.5132330656051636e-02
  -8.0593824386596680e-02]
 [-1.8889315426349640e-01  9.8254807293415070e-02  3.3184885978698730e-02
  -1.0251908004283905e-01 -1.8569156527519226e-01  3.1925296783447266e-01
  -2.3599641025066376e-01 -2.1487230062484741e-01  2.8971561789512634e-01
   3.4614294767379761e-02 -6.6044613718986511e-02  1.5062192082405090e-01
  -1.0822559148073196e-01 -3.8886750116944313e-03  1.9537405669689178e-01
   6.1946470290422440e-02  2.2861056029796600e-02  6.2379710376262665e-02
   7.1407265961170197e-02  1.3190984725952148e-01  9.9130630493164062e-02
   1.8162085115909576e-01 -3.2512024044990540e-02  3.9277169853448868e-02
   1.7294020950794220e-01]
 [ 3.8207333534955978e-02 -8.7760277092456818e-02  1.5965144336223602e-01
   1.6366432607173920e-01 -2.0938241481781006e-01 -9.0256832540035248e-02
   1.1293537914752960e-01 -4.0985661745071411e-01 -2.1026438102126122e-02
  -1.2176542729139328e-01  1.4637064933776855e-01  1.9327422603964806e-02
  -4.0879324078559875e-02 -3.8453531265258789e-01  7.0424661040306091e-02
   1.5357601642608643e-01  3.2765392214059830e-02  8.2253731787204742e-02
  -1.7797090113162994e-01  1.2347050756216049e-01 -1.2600096873939037e-02
  -1.4553867280483246e-01  1.1177046597003937e-01 -2.4981822073459625e-01
   2.4132430553436279e-03]
 [-2.3918378353118896e-01 -1.3682319223880768e-01  2.5787588208913803e-02
   7.5068861246109009e-02  2.8906099498271942e-02  6.8778976798057556e-02
   2.5112268328666687e-01  1.8558354675769806e-01  2.9236057400703430e-01
  -3.2052251696586609e-01 -1.6087014973163605e-01  1.6388878226280212e-01
   2.3718757927417755e-01  1.3057251274585724e-01 -2.4482063949108124e-01
   1.3691465556621552e-01  1.1081197112798691e-01  4.3295230716466904e-02
   3.6696353554725647e-01  2.1284466981887817e-01 -2.5944897532463074e-01
   7.9936161637306213e-02  3.5589389503002167e-02  3.2555047422647476e-02
   2.1306544542312622e-01]
 [-3.8070483133196831e-03  7.9103745520114899e-02 -3.8676318526268005e-01
  -7.9560661688446999e-03  5.5984262377023697e-02  1.8650164827704430e-02
  -4.7811269760131836e-01 -2.2070890665054321e-01 -5.2414715290069580e-01
   7.7769882977008820e-02  2.0782742649316788e-02 -1.4549932442605495e-02
  -3.7439119815826416e-01  1.1842501163482666e-01  4.1981082409620285e-02
  -1.8872214853763580e-01  3.3479785919189453e-01 -5.4106879979372025e-02
   2.1682475507259369e-01 -1.1197216063737869e-01  4.8941549658775330e-01
   1.0270444303750992e-01 -2.7933323383331299e-01  5.6734859943389893e-02
  -7.2022743523120880e-02]
 [-1.1653008311986923e-01  3.3101755380630493e-01 -3.7867173552513123e-02
  -6.1752032488584518e-02 -1.2376555800437927e-01 -8.5617877542972565e-02
  -2.2399169206619263e-01 -7.3876507580280304e-02  2.2015263140201569e-01
   5.7902086526155472e-02 -2.1673411130905151e-01  3.6427956074476242e-02
  -1.8100829422473907e-01  1.4411889715120196e-03  9.9244967103004456e-02
  -1.9205845892429352e-01 -5.7350378483533859e-02  1.9220411777496338e-01
   1.5782637894153595e-01 -1.6831508278846741e-01  2.5306180119514465e-01
   1.0032191127538681e-01  3.4145656228065491e-01 -9.3485333025455475e-02
  -1.0644400864839554e-01]
 [ 1.7128738760948181e-01  3.3776924014091492e-02 -1.6111068427562714e-01
   1.1536128073930740e-01  1.2855336070060730e-01 -8.8117778301239014e-02
  -1.1640106095001101e-04 -1.0653501749038696e-01 -2.6978006958961487e-01
   1.7861150205135345e-01  3.8056140765547752e-03  6.0527969151735306e-02
   3.0513763427734375e-01  6.0345839709043503e-02 -1.3406130671501160e-01
  -1.3433164358139038e-01  5.6834600865840912e-02  5.3371623158454895e-02
  -5.5344048887491226e-03 -2.7158266305923462e-01  1.0294379293918610e-01
  -1.7125371098518372e-01  4.1596356034278870e-01 -9.8352678120136261e-02
   2.4176822602748871e-01]
 [ 3.2881945371627808e-02 -1.3893993198871613e-01 -2.6463606953620911e-01
  -5.9373639523983002e-02  1.6150574386119843e-01 -4.7032058238983154e-02
   1.8532228469848633e-01  3.1525051593780518e-01 -2.9992383718490601e-01
  -1.9625671207904816e-01 -3.3074453473091125e-01 -1.6365116834640503e-01
  -3.3605015277862549e-01 -1.5440127253532410e-01 -5.5472377687692642e-02
   2.1372032165527344e-01  3.9352826774120331e-02 -1.1463677883148193e-01
   1.9316597282886505e-01  2.6193937659263611e-01 -1.7961312830448151e-01
   1.2742620706558228e-01 -1.7676508054137230e-02 -1.3925871253013611e-01
  -2.6210111379623413e-01]
 [-1.2255461513996124e-01  4.4274422526359558e-01 -3.6973518133163452e-01
   1.7257718741893768e-01  1.3057477772235870e-01  1.1592206358909607e-01
  -1.9468747079372406e-01  1.2513613700866699e-01  3.3361464738845825e-02
  -2.3233199119567871e-01  2.2143383324146271e-01 -1.9785922765731812e-01
  -4.4064175337553024e-02  2.5016900897026062e-01 -3.3872635103762150e-03
  -1.3846678659319878e-02  9.0400941669940948e-02  7.0985518395900726e-02
   1.2794195115566254e-01  4.3863700702786446e-03  9.0111687779426575e-02
   1.6745314002037048e-01 -6.9362811744213104e-02  1.7809933423995972e-01
  -1.0746153444051743e-01]
 [ 2.2359010577201843e-01 -5.9021659195423126e-02  1.6541281342506409e-01
  -1.2096866220235825e-01  6.6785573959350586e-02  6.9607771933078766e-02
  -2.7332228422164917e-01 -4.6932179480791092e-02 -1.1078567057847977e-01
   1.1206796765327454e-01 -1.1681286245584488e-01 -1.1035697162151337e-01
  -8.3809141069650650e-03  6.0642108321189880e-02  4.3660337105393410e-03
  -8.0971112474799156e-03  5.9855110943317413e-02  1.0411777347326279e-01
   1.9788683950901031e-01  1.6207958757877350e-01 -2.6944302022457123e-02
  -1.2264683097600937e-01  1.0110630095005035e-01 -2.1946671605110168e-01
   6.2192864716053009e-02]
 [-2.3940320312976837e-01 -1.0811430215835571e-01  2.2057537734508514e-01
  -1.5400959551334381e-01  1.2644238770008087e-01 -1.6304422914981842e-01
   7.4129253625869751e-02 -1.1114936321973801e-02 -1.1450456082820892e-01
   1.3457782566547394e-01  2.8630006313323975e-01  4.0405857563018799e-01
  -1.7119847238063812e-02  1.6707425937056541e-02  9.6212811768054962e-02
  -5.7575572282075882e-02 -9.9062435328960419e-02 -1.7197647690773010e-01
  -9.4829238951206207e-02 -1.0174514353275299e-01  9.6301008015871048e-03
   2.5270727276802063e-01  2.2601185739040375e-01 -1.0579719394445419e-01
   1.4878158271312714e-01]
 [ 1.3944569230079651e-01 -1.8834964931011200e-01 -3.5269075632095337e-01
   2.3981200531125069e-02  6.3801030628383160e-03 -1.9956338405609131e-01
   1.3353267312049866e-01  6.8953186273574829e-02 -3.5797330737113953e-01
  -6.4502552151679993e-02 -5.4853945970535278e-01 -1.4770221710205078e-01
  -9.1289415955543518e-02 -3.2221704721450806e-01 -1.3055552542209625e-01
   2.2967387735843658e-01  5.5478793382644653e-01  3.0326032638549805e-01
  -1.0291063785552979e-01  1.9809183478355408e-01 -3.0568781495094299e-01
  -2.1658226847648621e-01 -3.7024775147438049e-01  1.1326394230127335e-01
  -1.1866804957389832e-01]
 [ 1.7000052332878113e-01  1.4795023202896118e-01 -1.4030645787715912e-01
  -9.8422646522521973e-02  1.1951760947704315e-01 -9.2237748205661774e-02
  -1.2796991504728794e-02  1.6539813578128815e-01 -2.4869737029075623e-01
   1.4757548272609711e-01  1.1864217929542065e-02 -3.1556144356727600e-01
  -2.1301138401031494e-01  7.3301605880260468e-02  8.2737192511558533e-02
   1.9910074770450592e-01 -3.3148950338363647e-01  1.1421396583318710e-01
   1.7202751338481903e-01  3.2312303781509399e-01 -1.5761005878448486e-01
   8.7056100368499756e-02 -8.0150216817855835e-02  1.3003479689359665e-02
  -7.5842320919036865e-02]
 [ 8.5025466978549957e-02  9.5156282186508179e-02  4.4541016221046448e-02
   7.4818201363086700e-02  2.2787170484662056e-02  1.9098599255084991e-01
  -1.8223230540752411e-01 -5.6859645992517471e-02  2.1415002644062042e-01
   1.5461263060569763e-01 -4.1761826723814011e-02 -1.0381128638982773e-01
  -1.0433053970336914e-01 -1.9626910984516144e-01  1.1905163526535034e-02
   1.2315525859594345e-01 -2.3058618605136871e-01  1.0600380599498749e-01
   5.3369529545307159e-02 -1.0248424112796783e-01  2.4466225877404213e-03
   2.2393701970577240e-01  1.9318780303001404e-01 -7.5856731273233891e-03
  -5.6004486978054047e-02]
 [-1.3413591682910919e-01  1.8603152036666870e-01  4.0517922490835190e-02
   4.0956266224384308e-02  7.6181106269359589e-02  1.9121422665193677e-03
  -3.7281718105077744e-02  1.3995518675073981e-03 -1.1879714578390121e-01
   5.2525382488965988e-02  3.2837223261594772e-02  6.3202992081642151e-02
   4.8817239701747894e-02  6.4362414181232452e-02  1.2851949036121368e-01
   1.1264227330684662e-01 -4.3492403626441956e-01 -1.8370753526687622e-01
   5.7460378855466843e-02 -2.3908298462629318e-02 -5.8382069692015648e-03
   1.9145876169204712e-02  1.9179962575435638e-01  1.6238445043563843e-01
   4.3996136635541916e-02]
 [-3.6189907789230347e-01  2.9854927211999893e-02 -2.7471125125885010e-01
   1.2538702785968781e-01 -5.0846617668867111e-02  4.0122509002685547e-01
   2.2116439044475555e-01 -1.0720014572143555e-01 -3.7073079496622086e-02
   2.0519278943538666e-01 -3.3579054474830627e-01  3.1478697061538696e-01
   4.2084116488695145e-02  1.4585636556148529e-01  2.0768489688634872e-02
   4.7592990100383759e-02  1.5418955683708191e-01  3.0057752132415771e-01
  -4.9120783805847168e-02  1.9153942167758942e-01 -3.8934908807277679e-02
   8.9583933353424072e-02 -2.9807999730110168e-01  2.9350972175598145e-01
  -2.4669565260410309e-01]
 [ 1.0206903330981731e-02 -5.5472262203693390e-02  4.6810075640678406e-02
  -3.1236033886671066e-02  2.3823204636573792e-01  9.4916429370641708e-03
  -9.6776284277439117e-02 -2.3851701617240906e-01 -9.7393698990345001e-02
  -1.4373815059661865e-01  2.7371335774660110e-02 -3.4458830952644348e-01
  -4.0727894753217697e-02 -2.1514905989170074e-01  3.2672908902168274e-01
   1.6038951277732849e-01 -1.9183140993118286e-01  9.1755494475364685e-02
  -1.6389390826225281e-01  1.4296233654022217e-01 -1.2440734356641769e-01
  -3.0063299462199211e-02 -2.1296410262584686e-01  2.1134549379348755e-01
  -5.1828145980834961e-02]
 [ 2.1793712675571442e-01 -1.0892692208290100e-01  7.3104679584503174e-02
  -2.8435820341110229e-01  2.8100544214248657e-01 -4.5553728938102722e-02
  -2.4950699508190155e-01  2.2597441449761391e-02 -7.0945762097835541e-02
  -7.2078234516084194e-03  3.9265442639589310e-02 -1.8172634765505791e-02
  -1.8498554825782776e-01 -1.1468347162008286e-02  1.2765820324420929e-01
  -6.4677871763706207e-02  8.1474594771862030e-02  1.2690155208110809e-01
   7.9214759171009064e-02 -2.0567719638347626e-01 -1.5487127006053925e-01
   3.1703829765319824e-01 -1.0239043831825256e-01  1.5806062519550323e-01
  -1.6467797756195068e-01]
 [ 1.3681715726852417e-01 -9.1425091028213501e-02  8.1036776304244995e-02
  -6.0256272554397583e-02  3.5807896405458450e-02  1.4802181720733643e-01
   3.2591212540864944e-02 -2.1668086946010590e-01 -1.4155244827270508e-01
   9.4942966825328767e-05 -1.7201265692710876e-01  1.5216760337352753e-01
  -4.2567145079374313e-02 -1.4500534534454346e-01  5.2329380065202713e-02
   2.6603272557258606e-01  1.4196778833866119e-01 -3.5308234393596649e-02
  -1.1303842812776566e-01  6.2276870012283325e-02  5.5752228945493698e-02
  -2.1309942007064819e-01  1.9346140325069427e-02 -9.1610528528690338e-02
   1.1163759231567383e-01]
 [ 1.1946605145931244e-01 -4.5933276414871216e-02  3.1991538405418396e-01
   1.3835972547531128e-01  1.4143386483192444e-01 -3.1461712718009949e-01
   3.2202339172363281e-01  3.0361324548721313e-01 -2.1802842617034912e-01
   4.1985260322690010e-03 -1.8842995166778564e-01 -1.8553318083286285e-01
  -8.0235444009304047e-02 -7.7687449753284454e-02 -6.6725678741931915e-02
   1.1248672753572464e-01 -9.9850572645664215e-02 -1.4222046732902527e-01
  -3.7548229098320007e-02  3.4087070822715759e-01 -2.9312324523925781e-01
  -2.9030489921569824e-01 -1.1901775002479553e-01  1.4604452298954129e-03
   6.2101222574710846e-02]
 [-2.6059141755104065e-01 -1.0292036831378937e-01  7.3255263268947601e-02
  -1.4452251791954041e-01  1.8344993889331818e-01  5.9434041380882263e-02
  -4.1175729036331177e-01 -5.4019264876842499e-02  3.8110524415969849e-02
   9.9165238440036774e-02 -3.9700023829936981e-02 -2.2012047469615936e-01
   3.6920106410980225e-01  3.2918670773506165e-01  4.0762457251548767e-01
  -1.7873539030551910e-01 -2.0024216175079346e-01  1.7525357007980347e-01
   1.6907690465450287e-01  2.4349892139434814e-01  1.5785376727581024e-01
   1.7882215976715088e-01 -4.4894519448280334e-01  1.6666845977306366e-01
   4.9979962408542633e-02]
 [-5.8664873242378235e-02  3.0668158084154129e-02 -6.0900907963514328e-02
   8.9866325259208679e-02 -1.2484318017959595e-01  1.2728671729564667e-01
  -3.1029430031776428e-01  1.3026407361030579e-01 -9.3053437769412994e-02
   1.8021674454212189e-01 -1.0772751271724701e-01 -8.0483928322792053e-02
   2.0184747874736786e-01  1.7606949806213379e-01  1.5310803055763245e-01
  -4.2031291872262955e-02  1.2367810308933258e-01  2.3408675193786621e-01
  -3.8991324603557587e-02 -1.2666936218738556e-01  4.5729234814643860e-02
   8.4206618368625641e-02  3.6202155053615570e-02  1.5399775467813015e-02
  -5.6895851157605648e-03]
 [ 9.4255842268466949e-02  9.0080663561820984e-02  2.1435789763927460e-02
   3.5011249780654907e-01 -2.6327753067016602e-01  1.3865315914154053e-01
   9.4716819003224373e-03 -6.8675957620143890e-02 -1.6863648593425751e-01
  -3.7593297660350800e-02  2.2356522083282471e-01  1.1105989664793015e-01
   7.4346564710140228e-02 -1.1207451671361923e-01  8.4054782986640930e-02
   1.4682279527187347e-01 -1.9040288031101227e-01  1.1851894855499268e-01
   7.8932091593742371e-02  8.0477841198444366e-02  1.4704512059688568e-01
  -1.2826624512672424e-01  2.7812799811363220e-01 -3.5509246587753296e-01
  -2.2066919133067131e-02]
 [ 1.4382554590702057e-01 -1.2527808547019958e-01  5.3078372031450272e-02
  -1.3317216932773590e-01 -2.1352848410606384e-01  5.3155016154050827e-02
   2.4036146700382233e-01  1.1588692665100098e-01  3.9100378751754761e-02
  -1.4490988850593567e-01 -1.9701172411441803e-01  7.6246663928031921e-02
  -4.0907511115074158e-01 -2.8809869289398193e-01 -2.6923307776451111e-01
   7.2930209338665009e-02  1.8404857814311981e-01  8.9176699519157410e-02
  -1.3863059878349304e-01 -9.6166366711258888e-03 -3.6279371380805969e-01
   1.8630132079124451e-01  1.1784309148788452e-01  1.5347197651863098e-02
  -1.6692428290843964e-01]
 [-5.5374734103679657e-02 -1.5149356424808502e-01 -1.2647549808025360e-01
  -1.6856743395328522e-01  3.5677421838045120e-02  1.4818882942199707e-01
  -3.2022047042846680e-01  9.6766851842403412e-02  2.3336745798587799e-01
   4.0470682084560394e-02 -8.8607288897037506e-02 -3.0968013405799866e-01
   1.2243265658617020e-01  2.9459905624389648e-01  4.7368053346872330e-02
  -4.0514763444662094e-02 -5.5445600301027298e-02 -3.3013452775776386e-03
  -1.2761559337377548e-02  2.1162447333335876e-01  2.0165151357650757e-01
   1.6714607179164886e-01 -4.5170420408248901e-01  2.3299917578697205e-01
   1.2398514896631241e-02]
 [ 6.5721958875656128e-02  2.6047434657812119e-02 -1.5334632992744446e-01
  -5.6410927325487137e-02  1.1040444672107697e-01 -4.1787240654230118e-02
  -1.2906432151794434e-01 -6.8624891340732574e-02 -2.1766211092472076e-01
   5.4988600313663483e-02  1.5973979234695435e-01  4.8542518168687820e-02
   1.0298176109790802e-01  1.0910716652870178e-01 -1.3578507304191589e-01
   3.5867936909198761e-02  1.7403912544250488e-01  2.1330024302005768e-01
  -2.4969032034277916e-02 -1.7095294594764709e-01  1.6544346511363983e-01
   1.3776597380638123e-01  4.8512637615203857e-02 -1.7774946987628937e-01
   9.0669468045234680e-03]
 [ 1.4543457888066769e-02 -1.7431136220693588e-02  1.1735274456441402e-02
  -3.3234577625989914e-02  6.4877711236476898e-02  1.6075867414474487e-01
  -1.1975757777690887e-01 -1.8364135921001434e-01  1.3443583250045776e-01
   2.7125522494316101e-01  7.5718507170677185e-02  1.2455395609140396e-01
   2.2319568693637848e-01  1.8285924196243286e-01  2.8604462742805481e-02
   1.3910940289497375e-01  1.9989258050918579e-01  7.4348449707031250e-02
  -7.0720940828323364e-02 -2.4456021189689636e-01 -4.9005940556526184e-02
  -1.5590673685073853e-01  4.0444955229759216e-02  8.2374989986419678e-02
   4.6973917633295059e-02]
 [ 3.7172213196754456e-01 -1.7549788579344749e-02  2.0522108301520348e-02
   9.3831427395343781e-02 -1.3369524478912354e-01 -9.2961959540843964e-02
   1.1817511916160583e-01 -8.2251116633415222e-02  1.9503936171531677e-02
  -2.4563550949096680e-01 -2.0390056073665619e-01  2.4327901005744934e-01
  -3.5671871900558472e-01 -2.1686109900474548e-01 -2.8089950792491436e-03
   2.9540142416954041e-01 -2.8855052590370178e-01  2.2337667644023895e-01
  -1.2556346133351326e-02  1.2651589512825012e-01 -1.2496845424175262e-01
   1.6763080656528473e-01  1.2003739364445210e-02 -1.0341567546129227e-01
   1.4604024589061737e-01]
 [-1.7036046087741852e-01  1.7736355960369110e-01 -1.2714953161776066e-02
  -4.3832588940858841e-02 -1.4612662605941296e-02  4.2327206581830978e-02
   1.5320800244808197e-01  1.9209553301334381e-01  1.3570956885814667e-01
  -1.2462885677814484e-01  2.0655979216098785e-01 -1.3334752619266510e-01
  -1.6743217408657074e-01  1.4677184820175171e-01  1.0071450471878052e-01
  -2.3868437111377716e-01  1.5668311715126038e-01  1.1590941250324249e-01
  -7.8886903822422028e-02  2.4652072787284851e-01  1.3754889369010925e-01
   9.3473000451922417e-03 -1.4548218250274658e-01  1.4531280100345612e-01
   4.0335170924663544e-02]
 [ 4.0336215496063232e-01  1.5610162913799286e-01  1.6169561445713043e-01
   1.1024145036935806e-01  3.1761194113641977e-03  4.6136833727359772e-02
  -1.7075012624263763e-01  1.1475844681262970e-01  4.4511847198009491e-02
   7.7455721795558929e-02  1.0360732674598694e-01 -8.1865191459655762e-02
   1.3262127339839935e-01 -1.6323263943195343e-01 -9.1365076601505280e-02
   7.3579907417297363e-02 -2.2601746022701263e-02  1.8446019291877747e-01
  -1.5480045974254608e-01 -5.8311719447374344e-02  2.6203417778015137e-01
  -5.9648968279361725e-02  8.9190244674682617e-02 -5.6382745504379272e-02
   1.1342670023441315e-01]
 [-7.7163435518741608e-02  1.4460018835961819e-02  9.7851186990737915e-02
  -1.2192889302968979e-01  1.7130142450332642e-01 -4.0263246744871140e-02
   3.6600589752197266e-01  3.0854266881942749e-01 -1.0734151303768158e-01
   1.1297839879989624e-01  6.8663544952869415e-02 -2.3264341056346893e-02
  -5.6635387241840363e-02 -4.7483105212450027e-02 -1.0849556885659695e-02
   2.7230441570281982e-02 -1.1061302572488785e-01 -8.9451977983117104e-03
  -1.0165642015635967e-03  1.5916912257671356e-01  6.9142200052738190e-02
   8.5736989974975586e-02  1.0991330444812775e-01  1.8773894011974335e-01
   2.7864393591880798e-01]
 [-2.3804673925042152e-02  4.6871677041053772e-02  6.9630973041057587e-02
   2.2859042882919312e-01 -4.0991678833961487e-01  1.8153227865695953e-01
  -9.8382025957107544e-02 -2.3354634642601013e-01 -2.3836122825741768e-02
   2.1545158699154854e-02  7.3620431125164032e-02 -6.2870480120182037e-02
  -9.7682423889636993e-02  4.6486891806125641e-02 -5.7144958525896072e-02
   6.7571982741355896e-02  2.1897260844707489e-01  2.3531465232372284e-01
  -1.9056798517704010e-01  3.0472509562969208e-02  5.8034840971231461e-02
  -8.8348172605037689e-02 -3.8202235102653503e-01  1.9326685369014740e-01
   4.2919173836708069e-02]
 [ 5.9649903327226639e-02 -1.0573261976242065e-01  1.7396075651049614e-02
   3.5673812031745911e-02 -1.3390743732452393e-01  3.2389529049396515e-02
   1.0909216105937958e-01  1.0305619239807129e-01 -6.6605232656002045e-02
   6.3040725886821747e-02 -1.1142300069332123e-01  4.8612911254167557e-02
  -1.1297696828842163e-01  1.3236559927463531e-01 -4.9781143665313721e-02
   1.2324628978967667e-01 -2.4761691689491272e-01  4.8539850860834122e-02
  -2.9484935104846954e-02  2.6229640468955040e-02  1.7445081472396851e-01
  -1.5895509859547019e-03 -5.6123593822121620e-03  7.4960231781005859e-02
  -1.3656246662139893e-01]
 [ 1.1370360106229782e-01 -1.2075699865818024e-01  9.5008336007595062e-02
   1.9060957431793213e-01 -1.1001665145158768e-01  1.9493921101093292e-01
  -4.7961059026420116e-03  1.3864499330520630e-01 -1.3968078792095184e-01
  -7.0510141551494598e-02 -3.7153009325265884e-02 -1.3947165012359619e-01
   1.4594396948814392e-01 -9.1017402708530426e-02  3.9237666875123978e-02
  -2.3094636201858521e-01 -2.2478716075420380e-01  2.7338460087776184e-02
   1.3336153328418732e-01 -7.9509571194648743e-02  1.3695552945137024e-01
   2.3029209673404694e-01 -8.5451826453208923e-02 -2.5618329644203186e-01
   1.0861520655453205e-02]
 [-2.4957593530416489e-02  7.8067697584629059e-02  2.6783806085586548e-01
  -1.9818264245986938e-01  1.0606522113084793e-01 -3.4631571173667908e-01
   1.4426249265670776e-01  1.4299787580966949e-01  2.9779863357543945e-01
   2.0959334075450897e-01  5.0922181457281113e-02 -1.1118936538696289e-01
  -9.7343415021896362e-02 -4.2112823575735092e-02  8.1598617136478424e-02
   1.9448168575763702e-01 -2.6330214738845825e-01 -2.7240669727325439e-01
  -3.0520924925804138e-01  4.6099666506052017e-02 -6.4454384148120880e-02
  -1.1475311964750290e-01  3.5164199769496918e-02  1.1003196984529495e-01
   3.1578007340431213e-01]
 [-1.4458724856376648e-01  1.3982091844081879e-01 -1.2874455749988556e-01
   1.0037668794393539e-01 -1.1161798983812332e-01  3.9076787233352661e-01
   2.3810108006000519e-01  4.3867588043212891e-02 -1.9433248788118362e-02
   7.0947892963886261e-02 -2.0213748514652252e-01  3.5481914877891541e-01
   1.7903734743595123e-01  3.0257412791252136e-01 -4.9051991105079651e-01
   1.7331643402576447e-01  5.7896304130554199e-01 -3.3472582697868347e-02
   5.5616404861211777e-02 -2.5574972853064537e-02  3.2828327268362045e-02
  -1.4992387592792511e-01  4.4906981289386749e-02  1.9133168458938599e-01
  -1.7299760878086090e-01]
 [ 1.2222643941640854e-01 -4.8795703798532486e-02 -2.3592357337474823e-01
  -2.8293557465076447e-02 -1.7591829597949982e-01  1.8105295300483704e-01
   5.2960664033889771e-02  1.4381523430347443e-01 -1.0210710763931274e-01
  -1.2344697862863541e-01  6.3991416245698929e-03  4.7249779105186462e-02
  -2.7341815829277039e-01  1.0596003383398056e-01 -1.1184593662619591e-02
  -5.2997685968875885e-02 -3.4941735863685608e-01  1.3953234255313873e-01
   9.2190459370613098e-02 -2.0252598822116852e-01 -1.3739874958992004e-01
   1.4613102376461029e-01 -1.6033402085304260e-01  1.5514662861824036e-01
  -6.1995938420295715e-02]
 [-1.1429705470800400e-01 -1.2169058620929718e-01  1.7430831491947174e-01
   7.4050061404705048e-02 -1.4665175974369049e-01  3.6228094249963760e-02
  -8.8127367198467255e-02  9.3827635049819946e-02 -5.1445454359054565e-02
  -1.2662828899919987e-02  7.2613358497619629e-02 -2.7769458293914795e-01
  -6.9875091314315796e-02  3.0442077666521072e-02  2.9288449883460999e-01
  -9.1089820489287376e-03 -4.4156610965728760e-01 -1.1904316954314709e-02
  -3.0803421139717102e-01  1.8652045726776123e-01 -8.2916267216205597e-02
   4.5344777405261993e-02 -1.8487764894962311e-01 -2.0491935312747955e-01
   1.0621764510869980e-01]
 [ 2.9411831498146057e-01  7.0715047419071198e-02 -3.7360347807407379e-02
   6.0415782034397125e-02 -1.2531347572803497e-02 -7.6865881681442261e-02
   8.1629097461700439e-02 -2.4057772755622864e-01 -6.5193802118301392e-02
   3.0470940470695496e-01  8.0897063016891479e-02 -6.0730934143066406e-02
  -1.1089419573545456e-01  8.1092886626720428e-02 -1.8947353586554527e-02
   1.7226104438304901e-01  1.2493983656167984e-01  4.5070558786392212e-02
  -4.0603049099445343e-02 -2.2333019971847534e-01  6.5749064087867737e-02
  -3.4769317507743835e-01  7.2740338742733002e-02 -4.4936216436326504e-03
  -4.3069690465927124e-02]
 [ 9.0297944843769073e-02  1.8073125183582306e-01  2.3553863167762756e-01
   3.7781488895416260e-01  2.5419458746910095e-01 -2.0647297799587250e-01
   2.6341074705123901e-01  1.3619041442871094e-01 -1.8167354166507721e-01
  -1.1479347944259644e-01  2.0939445495605469e-01 -9.5895163714885712e-02
  -4.7932359576225281e-01 -1.3546390831470490e-01  1.3249509036540985e-01
  -6.7954778671264648e-02  1.9233861565589905e-01 -4.8151597380638123e-02
   7.4900545179843903e-02  1.6571766138076782e-01 -2.5123009085655212e-01
  -8.3313316106796265e-02 -1.8400710076093674e-02  4.0592610836029053e-01
   5.1433898508548737e-02]
 [-2.5282517075538635e-01 -2.5872331112623215e-02 -1.4232483692467213e-02
  -1.6708107292652130e-01  4.8245507478713989e-01 -5.4704297333955765e-02
   3.7361133098602295e-01  7.5748357921838760e-03  1.4734764397144318e-01
   1.3988751173019409e-01 -2.2994199395179749e-01 -4.9772408604621887e-01
   1.4708213508129120e-01  3.0220311880111694e-01  2.6823389530181885e-01
  -1.3022214174270630e-02 -2.4753664433956146e-01 -1.4253553748130798e-01
   6.5918609499931335e-02  2.8653413057327271e-01  2.8832325339317322e-01
   8.2520000636577606e-02 -2.5724753737449646e-01  2.0314894616603851e-01
   1.0777816921472549e-01]
 [-1.5537831187248230e-01  9.0955570340156555e-02 -8.6340159177780151e-02
  -1.3454771041870117e-01  2.1768921613693237e-01  1.1017189174890518e-01
   3.3952215313911438e-01  5.7777188718318939e-02 -1.1082758195698261e-02
   1.3066235184669495e-01 -1.5748277306556702e-01 -1.5311257541179657e-01
   1.1789546161890030e-01  3.4418714046478271e-01  2.0999430119991302e-01
  -7.2954080998897552e-02  1.2226046621799469e-01  3.3343195915222168e-02
   1.6939168795943260e-02 -1.0108733177185059e-01 -8.0943025648593903e-02
  -8.9466191828250885e-02 -8.9399917051196098e-03 -6.5215423703193665e-02
   2.3114927113056183e-01]
 [-8.3815865218639374e-02 -1.6835406422615051e-01  1.5019343793392181e-01
  -4.3532416224479675e-02  9.4671651721000671e-02  1.5079812705516815e-01
   2.1419718861579895e-01 -4.2434958741068840e-03  4.9011539667844772e-02
   3.4217497706413269e-01 -1.3107618689537048e-01  2.5111889839172363e-01
   1.1581315845251083e-01  1.8578459322452545e-01  8.5488511249423027e-03
  -3.6896944046020508e-02  2.7568116784095764e-01 -1.3638077676296234e-01
  -1.0733328759670258e-01 -1.3373650610446930e-01 -2.3600682616233826e-02
  -4.7773280739784241e-01  2.3413985967636108e-01  5.7944551110267639e-02
  -7.4075438082218170e-02]
 [ 1.8094629049301147e-01  1.2299009412527084e-01  5.0223875790834427e-02
   2.7439379692077637e-01 -5.3095698356628418e-02  1.1745857447385788e-01
   3.8540717959403992e-01  1.7584158480167389e-01 -4.6746626496315002e-02
  -2.7217340469360352e-01  1.1093601584434509e-01  6.5102711319923401e-02
  -3.5839751362800598e-01  1.1594565212726593e-01 -1.6725929081439972e-01
  -5.6350999511778355e-03  2.4896489083766937e-01  4.7978812456130981e-01
   1.3186553120613098e-01 -2.5079503655433655e-01 -7.7140983194112778e-03
  -2.0783613622188568e-01 -4.9637358635663986e-02  5.7442069053649902e-02
  -1.2027882039546967e-01]
 [-2.0643015205860138e-01 -1.7651279270648956e-01 -9.3869797885417938e-02
  -1.7274180054664612e-01  2.4021774530410767e-01 -3.2521861791610718e-01
   1.3930381834506989e-01  4.6597644686698914e-01  6.8064936203882098e-04
  -2.1083244681358337e-01  1.4809978008270264e-01 -7.1412795782089233e-01
  -3.6899420619010925e-01 -9.5457658171653748e-02  4.0672320127487183e-01
   2.3130969703197479e-01  1.8670970574021339e-02  1.0846135020256042e-01
  -4.9496870487928391e-02  3.6699762940406799e-01  3.6698818206787109e-01
  -1.0046808421611786e-01 -3.4087872505187988e-01  1.8605655431747437e-01
  -1.4135859906673431e-01]
 [-9.6346437931060791e-02  6.7591316998004913e-02 -1.2658704817295074e-01
   7.0235498249530792e-02  2.3292954266071320e-01 -4.5900557190179825e-02
   2.1215017139911652e-01  1.7270161211490631e-01 -3.6586809903383255e-02
   3.1316649913787842e-01  6.6209468059241772e-03  5.8844070881605148e-02
   8.5579290986061096e-02  2.2034423053264618e-01  2.1010354161262512e-01
   4.5841749757528305e-02 -7.5670696794986725e-02  3.6522220820188522e-02
   1.6370251774787903e-01 -7.8314498066902161e-02  2.4864906072616577e-01
  -1.4033351093530655e-02 -2.5306451320648193e-01  2.0397263765335083e-01
  -2.3628069087862968e-02]
 [-2.5792318582534790e-01  8.1262702587991953e-04  1.7982119321823120e-01
  -8.3470113575458527e-02  1.0346046835184097e-01  2.2307893261313438e-02
   1.6033355146646500e-02 -5.5161349475383759e-02 -7.9199008643627167e-02
   5.4648417234420776e-01 -4.1864477097988129e-02  1.3336089253425598e-01
   5.0331549718976021e-03  1.9924339652061462e-01  1.5928666293621063e-01
  -2.3325110971927643e-01  3.0039049685001373e-02 -3.9444822072982788e-01
   1.8042130395770073e-02 -3.9941462874412537e-01 -9.4047062098979950e-02
  -3.5970896482467651e-01  3.0928838253021240e-01  3.5911764949560165e-02
  -9.2968761920928955e-02]
 [ 1.6736991703510284e-01  7.2984009981155396e-02  6.0648664832115173e-02
   2.0112372934818268e-01 -2.3370379209518433e-01  3.7238287925720215e-01
  -9.4508245587348938e-02 -1.4492066204547882e-01  8.8781109079718590e-03
  -4.6014878153800964e-01  1.0884813219308853e-01  2.9476717114448547e-01
  -1.5620794892311096e-01  2.4040965735912323e-01 -1.5299031138420105e-01
   1.4108681678771973e-01 -7.0864059031009674e-02  2.2743161022663116e-01
   1.0602293163537979e-01  8.7023206055164337e-02 -7.9049222171306610e-02
   1.0503609478473663e-01 -2.5582519173622131e-01  9.2167872935533524e-03
  -1.0477599687874317e-02]
 [-1.5447963029146194e-02 -6.8961508572101593e-02 -1.6943987458944321e-02
   2.0134805142879486e-01  4.9640941619873047e-01 -3.1119588017463684e-01
   2.0576854050159454e-01  4.6909531950950623e-01 -3.2034510374069214e-01
  -1.9605275988578796e-01  5.6607741117477417e-01 -2.0325250923633575e-01
  -7.4158841371536255e-01  2.8818909078836441e-02  2.8057366609573364e-01
   1.4990603923797607e-01  3.2761305570602417e-01  1.6037178039550781e-01
  -1.1314087361097336e-01  3.9117327332496643e-01  5.1552183926105499e-02
  -1.5633273124694824e-01 -8.6755819618701935e-02 -6.4166761934757233e-02
   3.4506738185882568e-01]
 [-1.1377822607755661e-02  2.0153452455997467e-01 -8.6136676371097565e-02
  -2.3829687386751175e-02  1.2304709106683731e-01  1.7676178365945816e-02
   9.5276556909084320e-02  1.3094362616539001e-01 -2.2020667791366577e-01
  -3.9648512029089034e-04 -8.9606799185276031e-02  1.3927277922630310e-01
   1.4226055145263672e-01  1.4131373167037964e-01  1.8873403966426849e-01
  -2.4816255271434784e-01  2.0447605848312378e-01 -2.4744132533669472e-02
   1.2128306925296783e-01  8.9139536023139954e-02  1.5676386654376984e-01
   7.3429659008979797e-02 -1.0327767580747604e-01 -1.3898839056491852e-01
   2.2789366543292999e-01]
 [-3.1401563435792923e-02 -1.3751187920570374e-01  3.4026984125375748e-02
  -1.9255186617374420e-01  3.6022117733955383e-01 -2.8811457753181458e-01
   1.7857715487480164e-01  8.9436858892440796e-02  4.3953664600849152e-02
   6.4460165798664093e-02 -3.1491154432296753e-01  1.0365553200244904e-01
  -3.0184772610664368e-01  1.4078244566917419e-01 -1.6576614230871201e-02
   4.7625336796045303e-02 -2.0922233164310455e-01 -3.4422066807746887e-01
  -1.5267458558082581e-01  8.1968277692794800e-02  6.2520220875740051e-02
  -2.2487531602382660e-01 -5.2788123488426208e-02  1.6372483968734741e-01
  -9.1901592910289764e-02]
 [ 2.3569934070110321e-01  1.2550352513790131e-01  9.2349186539649963e-02
   2.7099326252937317e-01 -1.4192225039005280e-01  5.7792001962661743e-01
  -1.1074655503034592e-01 -1.7655652761459351e-01  5.4480876773595810e-02
  -2.1673546731472015e-01 -2.5757193565368652e-01  2.2194831073284149e-01
   2.1646925806999207e-01  1.3100923597812653e-01 -2.5174832344055176e-01
   9.4124466180801392e-02 -4.6689671277999878e-01  2.4178281426429749e-01
  -1.0324424505233765e-01 -1.3248978555202484e-01 -6.8391479551792145e-02
   3.4838389605283737e-02  5.4391290992498398e-02  3.6358136683702469e-02
  -2.4556410312652588e-01]
 [ 1.7921623587608337e-01 -9.0389281511306763e-02  2.7517139911651611e-01
   2.9709187150001526e-01  1.5577812492847443e-01 -2.8415713459253311e-02
  -1.0327203571796417e-01 -9.9617196246981621e-03 -1.9003236293792725e-01
  -1.5687564015388489e-01  2.2986413538455963e-01 -1.9060771912336349e-02
  -5.5878812074661255e-01  5.4329030215740204e-02  5.0479169934988022e-02
  -1.1285055428743362e-01  4.1219493746757507e-01  4.5147433876991272e-02
   8.3284616470336914e-02  2.8074936941266060e-02  2.0403947681188583e-02
  -1.9830848276615143e-01  1.6401247680187225e-01  1.2571415863931179e-02
   1.2580190598964691e-01]
 [ 1.0740573704242706e-01  8.7515033781528473e-02 -9.3463093042373657e-02
  -4.5905370265245438e-02 -7.8668162226676941e-02 -1.5084125101566315e-01
  -2.7211125940084457e-02  4.5499368570744991e-03 -9.9709704518318176e-02
  -6.7602150142192841e-02 -2.2183388471603394e-01  1.6603463888168335e-01
  -1.2617754936218262e-01  2.5891643762588501e-01  6.9659054279327393e-03
   8.7067121639847755e-03 -2.0724704861640930e-01 -1.3866226375102997e-01
  -6.1339013278484344e-02 -1.2188997864723206e-01  8.2072474062442780e-02
  -9.8089918494224548e-02  7.2959721088409424e-02 -1.4663891494274139e-01
   8.1581465899944305e-02]
 [ 3.8436064124107361e-01  1.3293705880641937e-01 -9.2504061758518219e-02
   1.8630839884281158e-01 -3.3770002424716949e-02 -4.5475244522094727e-01
   1.3842085003852844e-01  1.6362258791923523e-01 -1.8614949285984039e-01
  -5.0367135554552078e-03  1.1982057243585587e-02 -2.3159542679786682e-01
  -4.3085038661956787e-01 -2.9508285224437714e-02 -1.9581010565161705e-02
  -2.3140208423137665e-01 -1.6852150857448578e-01 -2.2610011696815491e-01
  -3.7104994058609009e-01  1.9370795786380768e-01  3.9873532950878143e-02
  -3.9086821675300598e-01  3.4578788280487061e-01 -7.2592057287693024e-02
   1.4553670585155487e-01]
 [ 4.8284504562616348e-02  2.1595647931098938e-01 -1.6324503719806671e-01
  -9.8089873790740967e-02 -5.4867740720510483e-02 -1.8380649387836456e-01
   3.2587957382202148e-01 -7.4068486690521240e-02 -3.6651766300201416e-01
   8.5128813982009888e-02 -4.0757882595062256e-01 -1.4151333272457123e-01
  -5.4314389824867249e-02  1.4082664251327515e-01 -2.7278780937194824e-01
   1.6335006058216095e-01  2.4878282845020294e-01  2.3306734859943390e-02
  -6.2823557853698730e-01  2.0908710360527039e-01 -3.4612840414047241e-01
   8.5158385336399078e-02  1.3262473046779633e-01 -4.2442589998245239e-01
  -2.7669784426689148e-01]
 [-6.2987236306071281e-03 -8.8919021189212799e-02  2.2929506003856659e-01
  -2.1628892049193382e-02  9.3807943165302277e-02  1.1288844794034958e-01
  -3.4785863757133484e-01 -1.2060861289501190e-01 -7.5547277927398682e-02
  -1.9627706706523895e-01  6.4693681895732880e-02  2.5122189521789551e-01
  -2.5940933823585510e-01  1.8113777041435242e-01 -1.4929139614105225e-01
  -2.4298444390296936e-01 -2.2597293555736542e-01 -1.0625868290662766e-01
  -3.4214872866868973e-02 -4.3191146850585938e-01 -1.6657620668411255e-01
  -3.4305146336555481e-01  3.2434186339378357e-01 -1.1764339357614517e-01
   8.0537132918834686e-02]
 [ 1.1752121150493622e-01  5.8624789118766785e-02  3.1610656529664993e-02
   8.8566973805427551e-02 -1.0563148558139801e-01  6.4741060137748718e-02
   6.6224813461303711e-02  2.8300610184669495e-01 -1.0164880007505417e-01
   2.3555684089660645e-01 -9.9325507879257202e-02  1.9811390340328217e-01
  -2.1622559428215027e-01  3.0883949995040894e-01  1.6772605478763580e-01
   1.3164642453193665e-01 -6.5151381492614746e-01  3.9684146642684937e-02
  -2.5484114885330200e-01 -3.5756170749664307e-02 -3.6524876952171326e-02
  -3.1725993752479553e-01 -1.7605918645858765e-01 -2.0422654226422310e-02
   1.1079411953687668e-01]]
--------------------------------------------------
***************
***************
***************
layer number:3
dense_1
bias:0
10
[ 0.01660081557929516  -0.06096339598298073   0.09613167494535446
 -0.061181191354990005 -0.04415768384933472  -0.0510682612657547
 -0.09200187027454376  -0.01389043778181076   0.016007961705327034
  0.15012450516223907 ]
--------------------------------------------------
kernel:0
25
[[-0.3738446533679962    0.26855212450027466   0.04981622099876404
   0.1715436428785324    0.02108837477862835  -0.35220831632614136
  -0.48510071635246277   0.157766655087471    -0.30773627758026123
   0.538997232913971   ]
 [-0.32044729590415955   0.6573466062545776    0.2875734865665436
   0.3993981182575226   -0.3285900056362152   -0.7010196447372437
  -0.7015116810798645    0.06034533679485321  -0.24344050884246826
   0.1257171481847763  ]
 [ 0.15479807555675507   0.5103602409362793   -0.19339881837368011
   0.38590726256370544  -0.19311560690402985  -0.33342525362968445
  -0.7672235369682312    0.17105887830257416  -0.21724611520767212
  -0.3189334571361542  ]
 [-0.30790555477142334  -0.49063822627067566   0.09120163321495056
  -0.3547285795211792   -0.2903778553009033    0.21122804284095764
  -0.32407915592193604   0.37969475984573364  -0.3214912414550781
   0.47800278663635254 ]
 [ 0.01730502024292946   0.3529408872127533    0.017502842471003532
  -0.008077596314251423 -0.19732049107551575  -0.42525598406791687
  -0.3541048765182495    0.1642640233039856    0.4236499071121216
  -0.16660459339618683 ]
 [ 0.5006421208381653    0.02730882354080677  -0.3223252594470978
   0.1942230612039566   -0.3743850886821747    0.12782514095306396
   0.16591215133666992  -0.04456108808517456  -0.32264620065689087
   0.015816600993275642]
 [-0.21703112125396729   0.2477005273103714    0.4715723991394043
   0.04773697629570961  -0.4408213496208191   -0.13792301714420319
   0.27185699343681335   0.1706668883562088   -0.1646946221590042
  -0.3833511471748352  ]
 [ 0.08483891189098358   0.3249683082103729   -0.11237894743680954
  -0.6077966690063477   -0.42231637239456177  -0.007863135077059269
   0.4577367603778839   -0.4312417507171631   -0.04070282727479935
  -0.4532769024372101  ]
 [-0.9887415170669556   -0.5012606978416443   -0.4207455813884735
  -0.33262377977371216   0.3574121594429016   -0.07170673459768295
  -0.38798317313194275  -0.5392391085624695    0.32062867283821106
   0.4344930350780487  ]
 [ 0.24928182363510132  -0.4501267373561859    0.29304239153862
   0.259159654378891    -0.40140074491500854   0.24439910054206848
   0.32706379890441895  -0.5755465626716614    0.29409679770469666
  -0.2372235357761383  ]
 [-0.015611656941473484 -0.5734437704086304   -0.06615684926509857
   0.2595967948436737    0.2681351900100708   -0.19508205354213715
  -0.11608874797821045   0.5549283623695374    0.028993308544158936
   0.3808082640171051  ]
 [-0.005626635625958443  0.34627145528793335  -0.3273446559906006
   0.3210794925689697   -0.12998412549495697   0.5972282886505127
   0.40047377347946167   0.19614578783512115  -0.0690392479300499
   0.2156148999929428  ]
 [-0.06704717874526978   0.07009845972061157   0.6654529571533203
  -0.07265139371156693  -0.7044467329978943   -0.4645000398159027
   0.18974964320659637   0.05282709002494812   0.04588102549314499
  -0.9684281349182129  ]
 [ 0.2979968190193176    0.039268214255571365 -0.4737818241119385
  -0.3714902698993683    0.49073946475982666   0.2711324691772461
   0.4292043149471283   -0.649888813495636    -0.670087993144989
   0.12365129590034485 ]
 [-0.11930042505264282  -0.2778955101966858    0.26357734203338623
  -0.40140974521636963   0.3562023341655731   -0.5171855092048645
   0.3018665015697479    0.17002013325691223   0.026127688586711884
   0.20503421127796173 ]
 [ 0.23229652643203735   0.5556482076644897    0.06828799843788147
  -0.35896942019462585   0.32825222611427307   0.2993071675300598
  -0.24537095427513123   0.18915408849716187  -0.1836460530757904
  -0.5615264773368835  ]
 [-0.8105024099349976    0.4464646875858307   -0.33598172664642334
   0.23477107286453247  -0.36633408069610596   0.590482771396637
   0.17759448289871216  -0.42506128549575806   0.21377767622470856
  -0.33906084299087524 ]
 [ 0.48907792568206787   0.2642541527748108   -0.4006359875202179
   0.14836998283863068   0.5021947622299194   -0.08448870480060577
  -0.17212101817131042  -0.27280718088150024  -0.3254539966583252
   0.19349415600299835 ]
 [-0.1559622585773468    0.05770920589566231  -0.5525049567222595
  -0.16573494672775269  -0.19545193016529083   0.3640603721141815
   0.015360651537775993  0.0462154857814312    0.3998272716999054
   0.1997094303369522  ]
 [-0.25322142243385315   0.18072757124900818   0.18175868690013885
  -0.23418326675891876   0.052181556820869446  0.25738438963890076
  -0.7220708131790161    0.4681164026260376   -0.3821220397949219
   0.32036980986595154 ]
 [-0.02265266329050064   0.07534117996692657  -0.5847885608673096
  -0.6727126836776733    0.17645052075386047  -0.1467375010251999
   0.39564675092697144  -0.23492147028446198   0.17255477607250214
   0.008060799911618233]
 [-0.14461176097393036   0.23518860340118408   0.42246562242507935
  -0.45280683040618896   0.2337164580821991   -0.2688445746898651
   0.5713343620300293    0.037565380334854126 -0.5045515298843384
  -0.7916944026947021  ]
 [-0.27256590127944946  -0.5824730396270752   -0.18011093139648438
   0.17374038696289062   0.31003186106681824   0.38355332612991333
  -0.22361738979816437  -0.4444139003753662    0.26356881856918335
  -0.11542397737503052 ]
 [ 0.4824715852737427   -0.0732855424284935    0.34740495681762695
   0.1095629632472992   -0.2255205661058426    0.22566482424736023
  -0.23094221949577332   0.4456331133842468    0.009579562582075596
  -0.45896849036216736 ]
 [-0.28903162479400635  -0.2811991572380066    0.10663724690675735
  -0.1374056041240692    0.6209401488304138    0.02356838434934616
   0.1763262301683426    0.39307963848114014  -0.35681265592575073
  -0.2466510534286499  ]]
--------------------------------------------------
***************
***************
***************
layer number:4
flatten
***************
***************
***************
layer number:5
max_pooling2d
***************
***************
***************
layer number:6
max_pooling2d_1
***************
***************
***************
layer number:7
top_level_model_weights
***************
***************
***************
